svm_type c_svc
kernel_type rbf
gamma 0.008547008547008548
nr_class 10
total_sv 100
rho 0.09262961149215698 0.10776859521865845 -0.0026150643825531006 0.08432543277740479 5.5733323097229E-4 0.02300247550010681 0.0016731619834899902 0.04270648956298828 0.046399444341659546 0.01346692442893982 -0.09119123220443726 -0.008336484432220459 -0.09340408444404602 -0.06869745254516602 -0.09134092926979065 -0.04669174551963806 -0.04453364014625549 -0.1119147539138794 -0.023119449615478516 -0.10963723063468933 -0.08466020226478577 -0.10723617672920227 -0.06636911630630493 -0.06239897012710571 0.08885890245437622 0.0031958818435668945 0.02450832724571228 0.00463441014289856 0.04558122158050537 0.04964521527290344 -0.08610090613365173 -0.061197429895401 -0.07779616117477417 -0.04141482710838318 -0.04005518555641174 0.02215176820755005 0.0028913021087646484 0.04260861873626709 0.04670390486717224 -0.012272924184799194 0.02063557505607605 0.025911927223205566 0.040906667709350586 0.047974199056625366 0.006068110466003418
label 8 4 7 5 10 9 3 2 6 1
nr_sv 10 10 10 10 10 10 10 10 10 10
SV
1.0 1.0 1.0 1.0 1.0 1.0 1.0 1.0 1.0 10:1.0 
1.0 1.0 1.0 1.0 1.0 1.0 1.0 1.0 1.0 2:0.375 78:0.37500000000000006 10:0.125 17:0.5 45:0.046875 51:0.4 86:1.0 101:0.04166666666666667 
1.0 1.0 1.0 1.0 1.0 1.0 1.0 1.0 1.0 7:1.0 37:1.0 107:0.2 8:1.0 40:1.0 
1.0 1.0 1.0 1.0 1.0 1.0 1.0 1.0 1.0 64:0.8 
1.0 1.0 1.0 1.0 1.0 1.0 1.0 1.0 1.0 
1.0 1.0 1.0 1.0 1.0 1.0 1.0 1.0 1.0 
1.0 1.0 1.0 1.0 1.0 1.0 1.0 1.0 1.0 45:0.1875 106:0.7500000000000001 
1.0 1.0 1.0 1.0 1.0 1.0 1.0 1.0 1.0 45:0.1875 106:0.7500000000000001 
1.0 1.0 1.0 1.0 1.0 1.0 1.0 1.0 1.0 45:0.1875 106:0.7500000000000001 
1.0 1.0 1.0 1.0 1.0 1.0 1.0 1.0 1.0 45:0.1875 106:0.7500000000000001 
-1.0 1.0 1.0 1.0 1.0 1.0 1.0 1.0 1.0 57:0.19999999999999998 98:1.0 
-1.0 1.0 1.0 1.0 1.0 1.0 1.0 1.0 1.0 1:1.0 39:1.0 57:0.033333333333333326 78:1.0 82:1.0 101:0.05555555555555555 
-1.0 1.0 1.0 1.0 1.0 1.0 1.0 1.0 1.0 24:0.75 98:0.5 
-1.0 1.0 1.0 1.0 1.0 1.0 1.0 1.0 1.0 103:1.0 10:0.16666666666666666 28:0.8333333333333333 83:1.0 98:0.16666666666666666 101:0.1111111111111111 
-1.0 1.0 1.0 1.0 1.0 1.0 1.0 1.0 1.0 81:0.5 52:1.0 57:0.09999999999999999 58:1.0 
-1.0 1.0 1.0 1.0 1.0 1.0 1.0 1.0 1.0 97:1.0 55:0.6666666666666666 101:1.0 
-1.0 1.0 1.0 1.0 1.0 1.0 1.0 1.0 1.0 57:1.0 
-1.0 1.0 1.0 1.0 1.0 1.0 1.0 1.0 1.0 24:0.33333333333333337 107:0.2222222222222222 1:0.3333333333333333 11:1.0 15:1.0 30:1.0 55:0.2222222222222222 59:1.0 98:0.3333333333333333 
-1.0 1.0 1.0 1.0 1.0 1.0 1.0 1.0 1.0 24:0.375 64:1.0 57:0.049999999999999996 77:1.0 
-1.0 1.0 1.0 1.0 1.0 1.0 1.0 1.0 1.0 64:0.26666666666666666 107:0.3333333333333333 112:1.0 
-1.0 -1.0 1.0 1.0 1.0 1.0 1.0 1.0 1.0 31:0.7333333333333335 48:0.5 42:1.0 69:1.0 104:0.15000000000000002 
-1.0 -1.0 1.0 1.0 1.0 1.0 1.0 1.0 1.0 6:1.0 48:1.0 97:0.6000000000000001 17:0.8 51:0.6400000000000001 
-1.0 -1.0 1.0 1.0 1.0 1.0 1.0 1.0 1.0 102:1.0 17:0.6666666666666666 98:0.3333333333333333 
-1.0 -1.0 1.0 1.0 1.0 1.0 1.0 1.0 1.0 44:1.0 102:0.5625000000000001 107:0.125 42:0.625 51:1.0 98:0.125 104:0.09375000000000001 110:0.25 
-1.0 -1.0 1.0 1.0 1.0 1.0 1.0 1.0 1.0 85:0.2702702702702703 10:0.3333333333333333 106:1.0 
-1.0 -1.0 1.0 1.0 1.0 1.0 1.0 1.0 1.0 48:0.45454545454545453 64:0.07272727272727272 107:0.18181818181818182 13:0.5454545454545455 17:0.5454545454545454 70:1.0 104:0.06818181818181819 31:1.0 53:0.7272727272727273 51:0.5818181818181818 98:0.09090909090909091 
-1.0 -1.0 1.0 1.0 1.0 1.0 1.0 1.0 1.0 35:0.8888888888888888 45:1.0 104:1.0 
-1.0 -1.0 1.0 1.0 1.0 1.0 1.0 1.0 1.0 85:1.0 107:0.8 28:1.0 45:0.44999999999999996 98:0.4 
-1.0 -1.0 1.0 1.0 1.0 1.0 1.0 1.0 1.0 45:0.75 
-1.0 -1.0 1.0 1.0 1.0 1.0 1.0 1.0 1.0 17:0.8 45:0.15000000000000002 51:0.32000000000000006 60:1.0 98:0.2 
-1.0 -1.0 -1.0 1.0 1.0 1.0 1.0 1.0 1.0 
-1.0 -1.0 -1.0 1.0 1.0 1.0 1.0 1.0 1.0 95:1.0 5:1.0 
-1.0 -1.0 -1.0 1.0 1.0 1.0 1.0 1.0 1.0 
-1.0 -1.0 -1.0 1.0 1.0 1.0 1.0 1.0 1.0 
-1.0 -1.0 -1.0 1.0 1.0 1.0 1.0 1.0 1.0 
-1.0 -1.0 -1.0 1.0 1.0 1.0 1.0 1.0 1.0 34:0.6666666666666666 49:1.0 
-1.0 -1.0 -1.0 1.0 1.0 1.0 1.0 1.0 1.0 74:1.0 105:1.0 
-1.0 -1.0 -1.0 1.0 1.0 1.0 1.0 1.0 1.0 
-1.0 -1.0 -1.0 1.0 1.0 1.0 1.0 1.0 1.0 19:1.0 24:1.0 80:1.0 
-1.0 -1.0 -1.0 1.0 1.0 1.0 1.0 1.0 1.0 
-1.0 -1.0 -1.0 -1.0 1.0 1.0 1.0 1.0 1.0 24:0.1875 53:1.0 107:0.125 114:1.0 58:0.5 61:1.0 89:1.0 109:0.37500000000000006 
-1.0 -1.0 -1.0 -1.0 1.0 1.0 1.0 1.0 1.0 63:1.0 107:1.0 
-1.0 -1.0 -1.0 -1.0 1.0 1.0 1.0 1.0 1.0 14:1.0 
-1.0 -1.0 -1.0 -1.0 1.0 1.0 1.0 1.0 1.0 116:1.0 98:0.5 
-1.0 -1.0 -1.0 -1.0 1.0 1.0 1.0 1.0 1.0 32:0.16666666666666666 47:1.0 92:0.4166666666666666 3:1.0 96:1.0 109:0.5 
-1.0 -1.0 -1.0 -1.0 1.0 1.0 1.0 1.0 1.0 
-1.0 -1.0 -1.0 -1.0 1.0 1.0 1.0 1.0 1.0 43:1.0 48:0.17857142857142855 107:0.07142857142857142 17:0.4285714285714286 45:0.05357142857142857 101:0.023809523809523808 30:0.6428571428571429 66:1.0 114:0.5714285714285714 18:0.2857142857142857 51:0.34285714285714286 90:1.0 94:0.4285714285714286 98:0.07142857142857142 
-1.0 -1.0 -1.0 -1.0 1.0 1.0 1.0 1.0 1.0 24:0.1875 35:1.0 92:0.15624999999999997 107:0.125 45:0.09375 70:0.6875000000000001 91:1.0 109:0.37500000000000006 
-1.0 -1.0 -1.0 -1.0 1.0 1.0 1.0 1.0 1.0 72:1.0 102:0.5 107:0.3333333333333333 
-1.0 -1.0 -1.0 -1.0 1.0 1.0 1.0 1.0 1.0 10:0.3333333333333333 71:1.0 107:0.3333333333333333 
-1.0 -1.0 -1.0 -1.0 -1.0 1.0 1.0 1.0 1.0 92:0.31249999999999994 100:1.0 34:1.0 98:0.25 
-1.0 -1.0 -1.0 -1.0 -1.0 1.0 1.0 1.0 1.0 10:1.0 
-1.0 -1.0 -1.0 -1.0 -1.0 1.0 1.0 1.0 1.0 9:1.0 60:0.16666666666666666 
-1.0 -1.0 -1.0 -1.0 -1.0 1.0 1.0 1.0 1.0 
-1.0 -1.0 -1.0 -1.0 -1.0 1.0 1.0 1.0 1.0 104:0.37500000000000006 108:1.0 
-1.0 -1.0 -1.0 -1.0 -1.0 1.0 1.0 1.0 1.0 10:1.0 
-1.0 -1.0 -1.0 -1.0 -1.0 1.0 1.0 1.0 1.0 84:1.0 
-1.0 -1.0 -1.0 -1.0 -1.0 1.0 1.0 1.0 1.0 
-1.0 -1.0 -1.0 -1.0 -1.0 1.0 1.0 1.0 1.0 64:0.8 
-1.0 -1.0 -1.0 -1.0 -1.0 1.0 1.0 1.0 1.0 
-1.0 -1.0 -1.0 -1.0 -1.0 -1.0 1.0 1.0 1.0 55:1.0 98:0.5 
-1.0 -1.0 -1.0 -1.0 -1.0 -1.0 1.0 1.0 1.0 51:0.5333333333333333 92:0.4166666666666666 107:0.3333333333333333 
-1.0 -1.0 -1.0 -1.0 -1.0 -1.0 1.0 1.0 1.0 32:1.0 
-1.0 -1.0 -1.0 -1.0 -1.0 -1.0 1.0 1.0 1.0 27:1.0 76:1.0 
-1.0 -1.0 -1.0 -1.0 -1.0 -1.0 1.0 1.0 1.0 
-1.0 -1.0 -1.0 -1.0 -1.0 -1.0 1.0 1.0 1.0 
-1.0 -1.0 -1.0 -1.0 -1.0 -1.0 1.0 1.0 1.0 2:1.0 
-1.0 -1.0 -1.0 -1.0 -1.0 -1.0 1.0 1.0 1.0 33:1.0 64:0.26666666666666666 107:0.3333333333333333 67:1.0 94:1.0 98:0.16666666666666666 
-1.0 -1.0 -1.0 -1.0 -1.0 -1.0 1.0 1.0 1.0 32:0.25 78:0.7500000000000001 87:1.0 98:0.25 
-1.0 -1.0 -1.0 -1.0 -1.0 -1.0 1.0 1.0 1.0 98:1.0 
-1.0 -1.0 -1.0 -1.0 -1.0 -1.0 -1.0 1.0 1.0 107:0.2 10:0.20000000000000004 17:0.4 110:0.4 16:1.0 
-1.0 -1.0 -1.0 -1.0 -1.0 -1.0 -1.0 1.0 1.0 
-1.0 -1.0 -1.0 -1.0 -1.0 -1.0 -1.0 1.0 1.0 2:0.5 68:1.0 
-1.0 -1.0 -1.0 -1.0 -1.0 -1.0 -1.0 1.0 1.0 23:1.0 65:1.0 51:0.4 60:0.08333333333333333 
-1.0 -1.0 -1.0 -1.0 -1.0 -1.0 -1.0 1.0 1.0 
-1.0 -1.0 -1.0 -1.0 -1.0 -1.0 -1.0 1.0 1.0 
-1.0 -1.0 -1.0 -1.0 -1.0 -1.0 -1.0 1.0 1.0 
-1.0 -1.0 -1.0 -1.0 -1.0 -1.0 -1.0 1.0 1.0 2:0.3333333333333333 98:0.3333333333333333 117:1.0 
-1.0 -1.0 -1.0 -1.0 -1.0 -1.0 -1.0 1.0 1.0 
-1.0 -1.0 -1.0 -1.0 -1.0 -1.0 -1.0 1.0 1.0 32:0.4 54:1.0 92:1.0 107:0.2 113:1.0 
-1.0 -1.0 -1.0 -1.0 -1.0 -1.0 -1.0 -1.0 1.0 
-1.0 -1.0 -1.0 -1.0 -1.0 -1.0 -1.0 -1.0 1.0 98:1.0 
-1.0 -1.0 -1.0 -1.0 -1.0 -1.0 -1.0 -1.0 1.0 
-1.0 -1.0 -1.0 -1.0 -1.0 -1.0 -1.0 -1.0 1.0 46:1.0 111:1.0 
-1.0 -1.0 -1.0 -1.0 -1.0 -1.0 -1.0 -1.0 1.0 64:0.2 17:0.5 79:0.5 99:0.5 
-1.0 -1.0 -1.0 -1.0 -1.0 -1.0 -1.0 -1.0 1.0 38:1.0 73:1.0 98:0.3333333333333333 
-1.0 -1.0 -1.0 -1.0 -1.0 -1.0 -1.0 -1.0 1.0 41:1.0 75:1.0 17:0.5 115:0.75 
-1.0 -1.0 -1.0 -1.0 -1.0 -1.0 -1.0 -1.0 1.0 79:1.0 99:1.0 
-1.0 -1.0 -1.0 -1.0 -1.0 -1.0 -1.0 -1.0 1.0 38:0.5 10:0.16666666666666666 13:1.0 81:1.0 109:0.5 115:1.0 
-1.0 -1.0 -1.0 -1.0 -1.0 -1.0 -1.0 -1.0 1.0 12:1.0 85:0.04504504504504504 109:1.0 
-1.0 -1.0 -1.0 -1.0 -1.0 -1.0 -1.0 -1.0 -1.0 56:1.0 
-1.0 -1.0 -1.0 -1.0 -1.0 -1.0 -1.0 -1.0 -1.0 20:1.0 21:1.0 22:1.0 25:1.0 26:1.0 29:1.0 98:0.125 117:0.37500000000000006 
-1.0 -1.0 -1.0 -1.0 -1.0 -1.0 -1.0 -1.0 -1.0 62:1.0 
-1.0 -1.0 -1.0 -1.0 -1.0 -1.0 -1.0 -1.0 -1.0 93:1.0 98:0.3333333333333333 117:1.0 
-1.0 -1.0 -1.0 -1.0 -1.0 -1.0 -1.0 -1.0 -1.0 64:0.26666666666666666 17:0.6666666666666666 98:0.3333333333333333 
-1.0 -1.0 -1.0 -1.0 -1.0 -1.0 -1.0 -1.0 -1.0 36:1.0 110:1.0 
-1.0 -1.0 -1.0 -1.0 -1.0 -1.0 -1.0 -1.0 -1.0 17:1.0 88:1.0 
-1.0 -1.0 -1.0 -1.0 -1.0 -1.0 -1.0 -1.0 -1.0 
-1.0 -1.0 -1.0 -1.0 -1.0 -1.0 -1.0 -1.0 -1.0 17:0.4 20:0.4 21:0.2 50:1.0 110:0.4 
-1.0 -1.0 -1.0 -1.0 -1.0 -1.0 -1.0 -1.0 -1.0 4:1.0 107:0.25 17:0.5 18:1.0 
