svm_type c_svc
kernel_type rbf
gamma 3.0892801977139327E-4
nr_class 2
total_sv 10366
rho -0.9224461498141134
label 1 2
nr_sv 7080 3286
SV
1.0 1012:4.915876921026896 1479:3.8798020281489785 
0.04742159967182588 1517:1.6752402248641443 1389:3.982410353157909 1484:3.598409322009559 
0.0659151897098693 2098:0.8919588497715234 2074:1.6474562228849836 2351:1.6653892060398203 2273:1.1746197568011567 2728:1.3123455319075934 35:0.5404118250869785 3230:1.6309594775392784 
0.01687853685758942 1363:4.654900569429218 42:5.7083581713874745 
0.030925460599838483 2079:9.759604056297956 
0.0692389581038408 3010:0.8018099169928101 1462:0.5612296522731408 1157:1.2255214688517444 1418:1.281354840021654 2694:1.392465951132765 2523:0.6265997549413502 1167:0.5671701691167756 2678:1.100855855031899 166:1.1702437289105427 
0.043355673281007714 653:13.11715606091604 
0.4160555890698379 2304:4.812651482293183 2119:4.5932093616765775 
0.3397595249871381 3125:3.8440645200649617 1085:2.2834565067403796 1511:1.7263489115656006 
0.043121308168297845 903:7.058578030458021 1631:3.499107494096267 
0.035300122190125696 975:2.5082330078826534 425:5.215023541349609 2840:3.982410353157909 
0.05215812068760729 2851:1.137775505686237 14:3.7367551551025078 188:4.510731186731628 
0.03975376649613309 35:3.78288277560885 1394:7.058578030458021 
0.03320000218458235 2516:2.255365593365814 3177:2.352859343486007 1751:2.255365593365814 1494:2.352859343486007 2553:2.352859343486007 2851:0.7585170037908247 
0.019126913165778487 1546:3.76234951182398 216:4.16789817369569 
0.03545021861333568 2995:1.9423790713278075 776:5.51484660983285 
0.05153325433154553 35:1.891441387804425 368:6.05857803045802 
0.018303586426857622 1310:4.039052020305347 35:1.26096092520295 54:3.230297102071314 
0.04595802928093194 3201:7.058578030458021 
0.04572544670419192 3191:14.117156060916042 
0.031620982999731595 2887:1.5603780931254285 1341:2.255365593365814 1187:1.1909354178275449 1752:2.1325379943381133 35:1.26096092520295 2192:1.7762874070464572 
1.0 1462:0.8418444784097112 425:1.3037558853374023 2523:1.1278795588944306 138:2.129310804682228 
0.028978218462942174 2995:1.9423790713278075 2226:4.039052020305347 231:3.2650759886762257 
0.5456667259478781 3071:10.657724442278743 
0.15223611518586802 1744:0.880814611337336 1364:0.905707975139328 1928:1.1994697740031863 2523:0.6265997549413502 1167:0.5671701691167756 454:0.9752562286701573 2906:1.100855855031899 2172:1.0371221373126065 
0.04307232562728143 2715:3.415876921026896 2172:4.148488549250426 1631:1.7495537470481335 2541:1.9185531412668282 
1.0 2098:0.5203093290333887 1631:0.5831845823493778 3068:0.724309903764669 1425:0.732897602310441 2652:0.6604915472272712 2079:0.8872367323907233 2298:1.4117156060916043 589:0.8562567209238404 3195:0.8631586562983292 
1.0 3031:10.309801138858436 
0.028639350325459823 772:3.4910999570471053 2662:7.058578030458021 
0.05584719038898816 2137:3.27928901522901 1637:2.284969034354031 1631:1.7495537470481335 1085:1.712592380055285 
0.29488200255755104 1268:2.2833432685549897 2812:1.9187188209718056 1827:2.306438712038977 1873:1.504939804729592 2523:1.1278795588944306 
0.05016456799617358 1431:6.05857803045802 791:3.893119591400712 
0.013288835179770905 1690:3.2772512806845975 2471:3.2650759886762257 97:7.105149628185829 
0.8088026628332322 35:1.891441387804425 2098:1.560927987100166 
0.047586504873821406 794:2.259102019343805 132:4.177397853398295 
1.0 2714:4.642133023375649 
0.04660851199480908 1075:14.117156060916042 
0.42899590983150004 2824:4.736649935570658 1831:4.654900569429218 
0.03958597513519916 2465:4.915876921026896 2152:3.623395670666318 
0.02624532113751664 2458:2.2834565067403796 296:3.241612879379094 44:3.3432310732219 
0.025647919641608986 2458:2.2834565067403796 726:2.5865346854326523 187:3.531198034953009 
0.1325298103522024 1517:0.7179600963703475 1059:1.5421754237183825 726:1.1085148651854224 2715:0.9759648345791131 317:1.1241755067817794 1235:1.251372008042565 
1.0 648:2.753058355262823 3098:5.362419319068641 
0.042667060843953816 2672:6.55857803045802 2523:2.8196988972360764 
0.030605771263101808 2398:2.937791770912979 1750:4.510731186731628 1517:1.6752402248641443 
0.02349108283030424 2964:3.7330521848685563 822:6.39761398301434 
0.041941305994627864 2401:2.3339490868478454 843:2.05862825288855 2122:4.37238535363868 
0.028417225021320526 2851:3.0340680151632986 687:3.8055721142583163 1004:3.6765644065552334 
0.03013609530256835 3218:2.1111826797361366 2716:2.77928901522901 1047:2.284969034354031 625:1.58313030383963 
0.009647221886464791 2425:4.705718686972014 2570:3.403421821769174 2851:1.5170340075816493 
0.05364564546760047 1517:0.7179600963703475 3150:1.1927102480198735 576:2.0167365801308628 2456:1.6474562228849836 1505:1.5225320631826775 2085:1.9331705085992692 2851:0.6501574318207068 
0.04230728629501942 1113:7.058578030458021 1187:3.572806253482635 
0.10126544897468134 1:3.2772512806845975 2540:3.230297102071314 1806:4.705718686972014 
0.04594481330489301 2970:4.705718686972014 1517:1.6752402248641443 150:2.8969637687379812 
0.8659415796378126 1312:11.416716342774949 
0.04192847585745685 717:13.532193560194886 
0.021323793368474207 1167:3.403021014700654 151:3.598409322009559 1511:1.7263489115656006 
0.028899212761623664 2046:1.2833778237196403 173:0.7179988673139891 2919:0.6056208036919528 1628:1.019115042300684 2523:0.5639397794472153 1425:0.8061873625414852 1298:1.2532193560194886 2851:1.011356005054433 795:2.118265235598863 
1.0 1041:11.532193560194886 
0.3209857730985799 1628:5.605132732653762 1085:3.42518476011057 
0.04393358672649361 633:7.058578030458021 2163:7.058578030458021 
0.2665935653342552 2279:6.39761398301434 2164:5.654900569429218 
1.0 1198:9.562567209238404 
0.029901231173280224 2397:4.265075988676227 2875:1.520855736412801 673:2.237338199259899 
1.0 2518:11.657724442278743 
0.02204210376466076 3010:3.608144626467646 923:4.667898173695691 
1.0 2006:8.210265465307522 
0.046351653408803595 2098:1.560927987100166 1927:2.986807764868432 1819:2.94880699150717 
0.04401010165754806 3227:2.1888030918442656 54:3.230297102071314 2840:3.982410353157909 
0.0266580968833332 2717:4.039052020305347 772:5.236649935570658 
0.520428597299174 335:10.309801138858436 
0.08276416970417165 1810:11.657724442278743 
0.3639915584244776 3010:2.4054297509784304 2875:2.2812836046192015 
0.04121326273016118 2273:4.1111691488040485 857:6.55857803045802 
0.04100929994511077 776:11.0296932196657 
1.0 2824:9.473299871141316 
0.03207365725660567 2995:1.9423790713278075 575:3.0621395744510513 2661:2.9564095158241512 
0.02554701159480124 2919:3.3309144203057404 1699:4.36241931906864 
0.03368512108659595 2806:3.777456818347484 269:6.39761398301434 
1.0 1821:7.617310173832835 
0.10269800869233554 2715:0.9759648345791131 1462:0.7215809814940382 3227:1.8761169358665135 1531:3.462044588833154 2875:0.6517953156054861 1511:0.8631744557828003 
1.0 2540:9.690891306213942 
0.09677592295876629 2890:1.5157980413145977 2292:1.2315392677254735 2619:1.5390855019256997 806:2.352859343486007 2772:1.8683775775512539 2805:2.255365593365814 
0.04054999544853575 1462:1.6836889568194224 2282:7.058578030458021 
0.03286695292332287 2875:0.9125134418476807 1798:2.306438712038977 1517:1.0051441349184866 1390:2.08334326855499 2658:1.997574608794215 
0.047529877254311514 35:1.26096092520295 1277:6.766096780097443 
0.060506130505879 2541:3.8371062825336564 3125:5.766096780097443 
0.038400839596739136 2140:2.2444839228139957 136:3.3723853536386805 794:2.259102019343805 
0.017324290063898972 3227:3.283204637766399 2919:3.3309144203057404 
1.0 2006:8.210265465307522 
1.0 1989:2.5292890152290104 1931:2.986807764868432 1462:1.262766717614567 1865:1.5593932028258144 
0.02491375219001031 3218:2.814910239648182 1865:2.0791909371010857 2817:3.129745202117614 
0.5143189521019154 1462:0.38854360541986677 2813:1.127682796682907 610:0.971477036856562 613:1.127682796682907 306:1.0443494633495738 2292:0.6157696338627368 1791:0.685194858134008 1345:0.626436934894076 1191:0.8591500949048696 1244:0.9341887887756269 1903:0.9197414600832765 
0.03597168205247003 1744:3.963665751018012 1724:4.51484660983285 
1.0 2006:8.210265465307522 
0.04945555466181216 2875:2.2812836046192015 2528:5.51484660983285 
0.0261027899672226 625:3.16626060767926 376:4.973615529736865 
0.04210298713460371 1816:14.117156060916042 
0.032053003912855677 2851:2.275551011372474 613:6.766096780097443 
0.03275009560618808 2715:3.415876921026896 1363:4.654900569429218 
0.03561257377661624 1603:3.3830483900487214 127:3.02928901522901 2919:1.6654572101528702 2503:2.1256115542002085 
0.04248121106120611 1758:14.117156060916042 
0.4483927200340979 1860:10.724838638137282 
0.7786536620500526 1767:2.986807764868432 265:2.6041790856937372 305:2.7209865835097213 
0.03364854891252704 1546:2.5082330078826534 2522:6.39761398301434 
1.0 648:8.259175065788469 
0.01671903761199074 2806:2.5183045455649893 900:2.7829905787130382 1699:2.90827954604576 
0.04303959198639874 3010:3.608144626467646 1064:4.897613983014339 
0.01985188822894815 35:1.891441387804425 2995:1.4567843034958556 231:2.4488069915071695 1423:2.77928901522901 
1.0 3031:10.309801138858436 
1.0 1744:3.963665751018012 
0.03722769531169137 2140:3.366725884220994 413:7.058578030458021 
0.046323910504274556 2875:2.2812836046192015 2396:6.55857803045802 
0.03879921518955118 1670:3.5363809707787937 1648:5.434614273736228 
0.8987971184990581 2851:1.137775505686237 2523:2.8196988972360764 
1.0 2458:1.712592380055285 2523:1.4098494486180382 1821:1.9043275434582088 
0.03134506585184783 2098:1.560927987100166 1517:1.2564301686481083 1364:2.037842944063488 673:1.6780036494449244 
1.0 1978:2.5292890152290104 2523:1.879799264824051 476:3.2084343215287885 
0.04527935101141091 933:13.11715606091604 
1.0 311:12.79522796602868 
0.00989870474837519 2541:1.5348425130134626 910:2.359045593205736 643:2.94880699150717 625:1.58313030383963 
0.6140443100582833 2098:18.73113584520199 
0.041055910974362654 592:3.8440645200649617 1085:3.42518476011057 
0.044667206718593824 2795:14.117156060916042 
0.04061479675340209 477:12.309801138858436 
0.04804209447630828 625:3.16626060767926 612:5.605132732653762 
0.026343126590059142 1517:2.5128603372962166 673:3.356007298889849 
0.025056102427092185 91:6.766096780097443 339:4.953851347643545 
0.04733202552806881 2020:7.058578030458021 794:3.388653029015708 
1.0 35:1.26096092520295 1821:2.5391033912776115 
0.03936582044761533 2875:2.2812836046192015 507:5.828862221139372 
0.11184912165651542 2259:1.8528593434860066 1462:0.8418444784097112 1542:2.0195260101526733 2115:1.9220322600324808 2851:0.7585170037908247 1958:1.9912051765789545 
0.0636916462041311 3010:0.7216289252935293 2205:1.4117156060916043 335:1.0309801138858437 1517:0.5025720674592433 1949:1.2795227966028682 1699:0.872483863813728 1167:0.5104531522050981 1733:0.8296977098500853 2851:0.45511020227449483 2806:0.7554913636694969 
0.042235618267721334 3138:13.11715606091604 
0.08684525377961139 1605:1.0771038904114703 231:2.7986365617224793 1364:1.1644816823219932 565:1.87387943727372 2115:1.6474562228849836 2194:1.2439664463969056 2226:1.731022294416577 
0.04579451357545149 3045:6.766096780097443 1085:3.42518476011057 
0.02792645934906553 3218:2.814910239648182 2249:2.8390810729096376 2303:4.510731186731628 
0.046049714123040736 1167:2.5522657610254904 1166:4.288998624904004 
0.031563936964565824 2851:3.0340680151632986 1401:5.964820706315818 
0.03031478803686401 35:1.891441387804425 2188:6.39761398301434 
0.04369354615604166 3178:14.117156060916042 
0.02906308485618354 2715:3.415876921026896 216:4.16789817369569 
0.01605291086579122 2100:0.9813843605480617 3062:1.2301994145631714 2759:0.6917601291561223 1266:1.1190728308053124 1831:0.8463455580780397 1832:1.0378833038886317 187:1.0593594104859028 2468:2.461960227771687 383:1.1532193560194886 
0.028987772910563762 2851:1.5170340075816493 1873:2.5082330078826534 1733:2.765659032833617 
0.05182382743396552 2812:4.796797052429514 1517:2.5128603372962166 
0.021557547601405026 811:4.781283604619202 119:6.766096780097443 
0.036806441001872296 3218:1.6889461437889093 2428:2.3315448884557486 2668:2.8234312121832086 673:1.6780036494449244 
0.2755963115243876 551:3.769933712952812 1479:3.8798020281489785 
0.04307366521433955 2805:4.510731186731628 1798:11.532193560194886 827:4.705718686972014 
0.10501045723272437 2234:2.5064387120389773 2851:1.137775505686237 693:3.0028772013792904 
0.045851726626476415 2881:13.11715606091604 
0.1943812320141654 705:5.129587532894234 2098:3.121855974200332 
0.040851534535424505 639:14.117156060916042 
0.024769612230753614 3218:2.814910239648182 2292:2.463078535450947 454:2.9257686860104717 
0.0348087707241803 1733:4.148488549250426 1448:5.89761398301434 
0.050733626406486404 35:1.891441387804425 3017:6.55857803045802 
1.0 1821:3.8086550869164175 
0.04768707124202551 2851:1.5170340075816493 1959:4.510731186731628 1290:3.5525748140929143 
0.04581090612900042 1167:2.5522657610254904 780:7.058578030458021 
1.0 35:1.26096092520295 1821:2.5391033912776115 2797:3.0947553489170994 
0.0453075066566814 305:16.32591950105833 
0.05914176449986871 1012:3.2772512806845975 769:4.705718686972014 2398:2.937791770912979 
0.006332241964034306 2687:1.755461211606283 2152:1.4493582682665274 2771:2.7064387120389775 1889:2.564793766447117 
0.18706894177404135 1628:3.7367551551025078 2851:1.5170340075816493 625:2.1108404051195064 
0.02679912708985892 1865:3.118786405651629 726:3.8798020281489785 
0.5427092276757394 1678:10.869228547472456 
0.045593426141404804 1481:13.11715606091604 
0.041375313870315136 784:13.532193560194886 
0.041778613284538586 2098:1.2487423896801328 1729:2.648398526214757 1439:2.8541790856937372 138:2.129310804682228 
0.04213757297850843 166:21.06438712038977 
0.052465095859709834 1462:2.525533435229134 1121:4.879802028148978 
0.020707699674078015 2964:1.4932208739474226 1345:1.5034486437457826 2849:2.5590455932057363 1764:1.8778471212705687 2806:1.5109827273389937 
0.020800668632175445 2098:0.6937457720445181 1030:1.568572895657338 1182:1.0203699688161456 1755:1.154314126444275 2523:0.7049247243090191 858:1.2031628705732957 2144:1.4137251423573045 1782:2.914431110569686 
0.12093175203697351 2772:11.210265465307524 
0.043454846036020234 3227:1.6416023188831994 2409:2.94880699150717 2200:1.8665260924342781 1961:2.3830483900487214 
0.03980349141067065 2231:2.1183249677853286 1187:1.7864031267413174 1733:2.074244274625213 102:2.94880699150717 
0.05152821849076722 216:4.16789817369569 384:7.058578030458021 
0.0444822366442499 2689:13.11715606091604 
1.0 648:4.129587532894234 2851:2.275551011372474 
0.48839631679595524 2099:12.309801138858436 
0.5496706894824808 786:6.05857803045802 1511:2.589523367348401 
1.0 1366:5.973615529736864 1446:5.605132732653762 
0.5181866246307193 975:1.504939804729592 2101:2.5590455932057363 2159:2.5064387120389773 2503:1.7004892433601668 1873:1.504939804729592 
0.04103743935309733 2875:1.520855736412801 2492:3.598409322009559 187:3.531198034953009 
0.04163745981904812 35:1.26096092520295 2387:4.705718686972014 816:4.705718686972014 
0.04262141336911392 1374:7.058578030458021 
0.04275347462849281 287:12.309801138858436 
0.043619365073213165 83:14.117156060916042 
0.04323298178970429 1345:3.7586216093644564 257:6.55857803045802 
0.5698091958233586 2983:2.77928901522901 2152:1.811697835333159 117:3.5292890152290104 2382:2.1563257411465915 
0.044558740582493775 2367:9.411437373944027 457:3.315743686491243 1517:1.6752402248641443 
0.015968237729420916 2500:3.574946212712427 1942:3.357587313852529 2063:4.103267046286145 
0.043948080478419846 1835:14.117156060916042 
0.04973403871140334 3011:7.058578030458021 1517:2.5128603372962166 
0.016557159788276543 2200:3.7330521848685563 1791:4.1111691488040485 
0.030005276827733136 3084:4.781283604619202 1167:2.5522657610254904 
0.011510427781189925 1764:4.694617803176421 187:5.296797052429514 
0.14248266155325826 648:0.8259175065788469 173:1.579597508090776 1517:0.5025720674592433 2273:0.8222338297608097 425:0.7822535312024415 2851:0.5056780025272165 625:1.4072269367463377 414:1.0463018158638833 1903:1.1241284512128935 
0.017620184155416673 3188:2.564793766447117 1997:4.915876921026896 
1.0 127:2.4234312121832082 843:2.05862825288855 1495:2.6988069915071695 1479:1.9399010140744892 
0.030676492781960482 2140:2.2444839228139957 1303:4.915876921026896 
0.2263090084532867 2140:1.683362942110497 1462:1.262766717614567 1345:1.8793108046822282 1511:1.2947616836742004 
0.5862150721196642 1605:3.769863616440146 35:1.891441387804425 
0.023621854242306388 2445:5.973615529736864 1114:6.55857803045802 
0.059417688342665934 711:4.37238535363868 279:3.885908147426248 
0.18267981571497358 1462:0.6313833588072835 1364:1.018921472031744 3150:1.0436214670173893 2523:0.7049247243090191 1616:1.6915241950243607 408:1.3684038824342162 2679:1.457215555284843 1511:0.6473808418371002 
0.04987860557994098 2958:3.9587418580398386 296:4.862419319068641 
0.028247600029958103 2458:2.2834565067403796 726:2.5865346854326523 311:4.265075988676227 
1.0 2249:4.258621609364456 1511:2.589523367348401 
0.04748730504946609 707:5.828862221139372 512:5.236649935570658 
0.03789267712597436 1873:2.5082330078826534 772:3.4910999570471053 1235:2.9198680187659853 
0.03453985566661886 3227:2.1888030918442656 1504:3.885908147426248 1116:3.039052020305347 
0.5479640711606155 191:10.869228547472456 
0.1984813754843784 2003:2.4769256738217726 2851:1.137775505686237 118:4.705718686972014 
0.05389562370935495 1838:6.39761398301434 1517:2.5128603372962166 
1.0 648:8.259175065788469 
0.05350186634030201 1185:7.058578030458021 1085:3.42518476011057 
0.06504116606513888 3080:2.8234312121832086 1631:1.399642997638507 35:0.75657655512177 1068:1.475137814902979 625:1.2665042430717042 
0.05795984085899668 2875:1.520855736412801 763:2.4115043371847333 1624:2.7057186869720136 
1.0 391:3.804680710358672 
1.0 2098:1.560927987100166 977:3.7367551551025078 1511:1.7263489115656006 
1.0 1488:2.757423304916425 2968:2.969234231762364 1511:1.7263489115656006 
0.039800151522715745 2919:0.7402032045123867 1950:1.3677556820953818 166:2.3404874578210855 317:0.8743587274969394 1839:1.4574617845462265 1791:0.9135931441786774 2356:1.2352395623240044 593:1.177066011651003 205:0.8086613636465662 
0.04067572695251231 183:6.766096780097443 1517:10.051441349184866 
0.010090376509035427 1462:0.7215809814940382 3018:1.3157522093296459 2776:1.7903133657421264 2458:0.9786242171744485 3172:1.4586093521867887 1490:1.4045362631505418 2462:1.2590536161055625 
0.052933906200023945 1462:1.262766717614567 1865:1.5593932028258144 841:3.27928901522901 97:2.664431110569686 
0.010052249584991882 1058:5.473615529736865 120:6.154900569429218 
0.04151763991595609 992:3.7330521848685563 678:6.55857803045802 
0.09247278330256559 35:18.91441387804425 
0.043170114243908764 1652:6.55857803045802 1429:5.266096780097443 
0.007250657723876619 1868:1.3677556820953818 1116:1.0130173401017823 1317:2.327399971364737 2821:1.3463506734351154 625:2.1108404051195064 982:1.2352395623240044 35:0.8406406168019666 2797:1.0315851163056997 2746:1.1399083406431632 
1.0 1167:1.701510507350327 975:2.5082330078826534 2094:3.0170222901527564 
0.02340487395907718 763:3.6172565057771 243:3.9837044707056792 
0.03376726843391959 455:3.403421821769174 100:5.973615529736864 
0.014317387428279621 1699:4.36241931906864 788:5.2083581713874745 
0.05067801282765613 2120:7.058578030458021 332:6.55857803045802 
0.015339050920626915 1741:1.9125134418476808 1089:3.1330483900487214 992:2.4887014565790375 
0.010617173268045722 1479:3.8798020281489785 794:3.388653029015708 
1.0 1198:3.187522403079468 2619:3.0781710038513994 1290:3.5525748140929143 
0.05292085313513006 677:4.705718686972014 1278:3.472238780924983 
0.026489554222211487 1865:1.2475145622606516 1517:1.0051441349184866 451:2.1590455932057355 
0.04354234915250838 1612:14.117156060916042 
0.016444254609252616 2568:2.6988069915071695 3187:2.457938460513448 726:1.9399010140744892 166:5.266096780097443 
0.04623201557940214 2691:7.058578030458021 1382:7.058578030458021 
0.026729744096235228 1167:1.701510507350327 1518:4.705718686972014 2851:1.5170340075816493 
0.022503022745113208 3227:3.283204637766399 425:3.9112676560122073 
1.0 339:9.90770269528709 
0.06415208565921612 2639:2.914431110569686 3188:2.564793766447117 1913:2.757423304916425 1345:1.8793108046822282 
0.03502292092548822 2569:2.0167365801308628 1631:0.9997449983132191 858:1.6042171607643942 1167:0.8507552536751635 2851:0.7585170037908247 295:1.324538509912288 
0.045782442883325926 2098:2.0812373161335547 286:3.4540895195841905 272:3.219241480759581 
0.028900484442705456 32:6.766096780097443 2331:4.812651482293183 
0.028376976460306534 3010:3.608144626467646 1357:4.483704470705679 
0.04236221343847325 1517:5.025720674592433 1026:6.766096780097443 
0.04312877053855218 2113:13.11715606091604 
0.0425913055092291 3218:4.222365359472273 194:7.058578030458021 
0.055289405255131 2429:1.0083682900654314 9:0.6561727659537967 1997:0.7022681315752709 348:1.0083682900654314 2873:0.9665852542996346 1733:0.6382290075769886 2283:0.9829356638357233 173:0.6581656283711566 35:0.3152402313007375 3227:0.5472007729610664 2851:0.3792585018954123 251:1.0258167615715363 
0.04381775107322894 1388:14.117156060916042 
1.0 2249:2.8390810729096376 1511:2.589523367348401 
0.08522837509918245 391:0.6917601291561223 1860:0.9749853307397529 978:1.2301994145631714 92:1.1632025423662438 1928:0.9813843605480617 35:0.3438984341462591 290:1.1924687328105492 57:1.6495930802831977 794:0.6161187325483106 295:0.7947231059473729 
1.0 1234:10.416716342774949 
0.04242945209776819 1029:24.619602277716872 
0.024247570858526534 1070:4.796797052429514 537:6.766096780097443 
0.03969151783487347 2476:6.766096780097443 231:4.897613983014339 
1.0 1573:1.1632025423662438 2490:1.1632025423662438 856:1.1190728308053124 2443:1.0597931311162494 843:0.82345130115542 2523:0.5639397794472153 35:0.4203203084009833 2140:0.7481613076046653 2311:1.191648737570809 
0.02180768382145882 2465:2.457938460513448 2152:1.811697835333159 710:2.6812096595343204 1961:2.3830483900487214 
0.04203066692839811 945:4.510731186731628 205:2.4259840909396986 2245:2.969234231762364 
0.008048218248882057 1729:5.296797052429514 383:5.766096780097443 
0.037043008645540804 2851:2.275551011372474 2353:7.058578030458021 
0.02544156368818711 2057:1.9103556574874108 921:3.3830483900487214 1511:1.7263489115656006 
0.033754925414696206 1099:2.352859343486007 1063:1.942954073713124 2317:1.564872601058807 295:3.1788924237894918 
0.03278955319913251 2152:1.4493582682665274 2140:5.050088826331491 791:1.946559795700356 673:1.6780036494449244 
0.48628961342862115 3227:2.1888030918442656 2875:1.520855736412801 
0.03707638746563297 2140:3.366725884220994 1633:5.036380970778794 
0.04778388142491866 3227:3.283204637766399 2311:5.362419319068641 
0.04115597576295304 893:4.705718686972014 3150:2.7829905787130382 1511:1.7263489115656006 
0.3787578775137349 2685:11.11715606091604 
0.04698790034708156 300:13.11715606091604 
0.048467199414214526 1779:6.39761398301434 2549:6.766096780097443 
0.036782380695881155 975:3.76234951182398 934:6.266096780097443 
0.13704591258188198 2536:4.265075988676227 1825:3.598409322009559 1182:2.7209865835097213 
0.05221380266335584 2523:1.879799264824051 795:3.177397853398295 1252:3.574946212712427 
0.04179127622986598 3227:1.6416023188831994 1147:2.0436603888942004 3223:2.495933146945477 
0.5443938405947409 2357:11.947231059473728 
1.0 2006:8.210265465307522 
1.0 2249:4.258621609364456 1511:2.589523367348401 
0.025638809745688464 918:4.265075988676227 2835:3.3432310732219 1736:3.982410353157909 
0.042734359357742016 111:13.11715606091604 
0.0387779090781956 2467:4.3538825623891695 900:4.174485868069557 
0.0177561948587907 407:3.5292890152290104 9:2.2966046808382887 763:1.80862825288855 2851:1.137775505686237 
0.644732871282278 2471:4.897613983014339 673:3.356007298889849 
0.012397786342659773 243:2.655802980470453 3106:4.37238535363868 1085:2.2834565067403796 
0.047508542337011184 2419:12.79522796602868 
1.0 648:4.129587532894234 425:3.9112676560122073 
0.02738188236817439 975:2.5082330078826534 625:2.1108404051195064 305:2.7209865835097213 
0.030270787664490876 1167:1.701510507350327 930:3.472238780924983 1517:1.6752402248641443 
0.030384908759054564 1225:3.120756186250857 686:3.8440645200649617 89:3.177397853398295 
0.044725186060962215 1222:14.117156060916042 
0.02784687385724309 2995:1.4567843034958556 25:3.1978647016196757 625:2.1108404051195064 
0.22627462311753 1167:0.7292187888644258 975:1.07495700337828 1968:1.4328133170951 843:1.1763590016505998 815:1.9331705085992692 1452:1.156398321126798 
0.14654327608805612 2114:12.532193560194886 
0.04398210704985533 2758:6.39761398301434 
0.20486558123439363 2098:1.2487423896801328 1865:0.6237572811303258 2919:0.6661828840611481 1519:1.2117156060916041 405:1.2953027158087491 243:0.8852676601568176 2608:1.3165241950243607 1252:1.3406048297671602 
0.022783003872851818 1167:1.2761328805127452 2851:1.137775505686237 1932:3.5292890152290104 1517:1.2564301686481083 
0.03617424141879612 907:4.705718686972014 1831:3.1032670462861454 3224:4.705718686972014 
0.04479699166590757 2409:11.79522796602868 
0.04570176813159324 980:14.117156060916042 
0.042193476993634925 1859:12.79522796602868 
0.11071185560180466 2826:11.309801138858436 
0.03343469748048823 1384:4.504315802068936 1070:4.796797052429514 
0.04614743161552197 2366:13.532193560194886 
1.0 2479:3.982410353157909 320:1.9220322600324808 1167:0.8507552536751635 847:2.0195260101526733 139:1.578883311856886 251:2.0516335231430727 
0.34141159290657086 1968:10.0296932196657 
0.0421743244932194 1556:13.11715606091604 
0.29009454245087035 2398:1.4688958854564895 1890:1.989446211894746 2547:2.2833432685549897 2523:1.1278795588944306 2140:1.3466903536883976 
0.03420915867668525 234:6.766096780097443 1315:5.036380970778794 
0.5998046417618805 992:14.932208739474225 
0.016102039149342325 1638:5.058578030458021 835:5.605132732653762 
0.9646514172223981 1810:11.657724442278743 
0.03936640750662675 1583:5.605132732653762 544:4.009561988977757 
0.018794566378961482 2875:2.2812836046192015 791:3.893119591400712 
0.048564327211303576 1100:4.705718686972014 2890:3.0315960826291954 2643:4.103267046286145 
0.6077923291710459 648:1.0323968832235586 1214:1.3091624838926645 665:2.6041790856937372 1821:0.9521637717291044 590:1.493403882434216 538:0.9677645786961394 2851:0.5688877528431185 1225:1.1702835698440714 
0.03084231853334973 1256:1.701710910884587 1041:1.9220322600324808 755:1.543195844298078 1121:1.6266006760496592 673:1.1186690996299495 900:1.3914952893565191 
1.0 1539:6.154900569429218 791:3.893119591400712 
0.022399155152895464 2098:2.4974847793602657 2919:1.3323657681222962 791:1.5572478365602849 968:2.00593864393314 2523:1.1278795588944306 
0.9331742282407102 1631:1.7495537470481335 57:2.268190485389397 1698:2.507423304916425 
0.008996712629375032 2946:3.1978647016196757 243:2.655802980470453 1548:4.103267046286145 
0.0423939882044266 2995:2.9135686069917113 911:5.129587532894234 
0.03177884406620478 3227:2.1888030918442656 350:3.403421821769174 
0.08087330495727134 383:11.532193560194886 
0.03131031953494701 1210:1.0859350816089264 1888:1.127682796682907 1973:0.8430963384096701 2523:0.4699498162060127 476:0.8021085803821971 2578:1.09309633840967 984:0.8591500949048696 2731:1.1764296717430034 35:0.3152402313007375 286:0.8635223798960476 2465:0.8193128201711494 3237:1.09309633840967 
0.1122403019190682 35:2.5219218504059 1012:3.2772512806845975 982:3.705718686972013 
0.04701440066076387 373:14.117156060916042 
0.3527860799117716 1462:0.4209222392048556 1256:0.8508554554422935 2435:1.127682796682907 2273:0.685194858134008 398:0.9122692549561441 693:0.7507193003448226 1844:0.8393968284631322 1452:0.6745656873239656 35:0.630480462601475 791:0.648853265233452 113:1.1924687328105492 
0.017839256278964207 2995:2.9135686069917113 1624:4.058578030458021 
0.04504116422236722 669:13.532193560194886 
0.042322446599348286 456:11.532193560194886 
0.04127680151976692 2715:3.415876921026896 139:4.736649935570658 
0.038830185121023826 2875:2.2812836046192015 968:5.01484660983285 
0.02006546381029663 3227:3.283204637766399 2152:3.623395670666318 
0.017763034018654877 1167:1.2761328805127452 2995:1.4567843034958556 1849:2.5525663663268805 423:3.5292890152290104 
0.020858987210796057 2964:2.4887014565790375 2519:3.8055721142583163 2403:3.4366003796194784 
0.027328451740019858 1908:12.532193560194886 
0.008702813789791985 1973:5.058578030458021 1303:4.915876921026896 
0.04605984316132907 2493:14.117156060916042 
0.12953447350342917 3068:3.9837044707056792 2458:3.42518476011057 
0.14346641215833963 2262:0.9842483050791293 2210:1.0859350816089264 15:1.0859350816089264 2384:1.0859350816089264 1592:0.7591714267286503 1688:0.7970975814425055 1235:0.6738156966383043 464:2.0818759323376748 2403:0.7930616260660336 1973:0.7782427739166187 1704:1.0859350816089264 
0.04327846699383548 2092:13.532193560194886 
1.0 1821:2.5391033912776115 2875:1.520855736412801 874:2.4935104801241303 
0.038300260663022556 912:7.058578030458021 2523:2.8196988972360764 
0.04343393536236878 467:13.532193560194886 
0.04719754191931071 1445:12.309801138858436 
1.0 173:1.9744968851134699 2249:2.129310804682228 1179:3.574946212712427 
0.010375231075353233 2964:3.7330521848685563 1847:4.812651482293183 
0.043292155694636555 1011:13.11715606091604 
0.040574326498282826 1583:2.242053093061505 625:1.2665042430717042 1252:2.1449677276274564 1511:1.2947616836742004 
0.038980128222876234 2523:1.4098494486180382 1167:1.2761328805127452 1651:2.717307136868114 2192:2.664431110569686 
0.03236031700001455 562:10.362268558752572 
0.03638648878449399 1462:1.6836889568194224 370:3.574946212712427 
0.04718674680858864 352:13.11715606091604 
1.0 1457:12.11715606091604 
0.03921474561412845 830:12.79522796602868 
0.942853951738282 726:3.8798020281489785 
0.045234317041401975 1635:12.532193560194886 
0.0208144493101399 1425:4.030936812707425 1249:5.766096780097443 
0.03709304399168786 2570:5.105132732653761 2386:7.058578030458021 
0.9586485839669411 2825:3.7367551551025078 1252:3.574946212712427 
0.018915089233042016 2995:1.9423790713278075 1225:3.120756186250857 625:2.1108404051195064 
0.0772015405717181 2401:1.0373107052657091 318:1.392465951132765 1873:0.8360776692942178 2759:0.8454846023019271 2800:1.1702437289105427 2500:1.191648737570809 3072:1.0591326177994316 1850:1.503577062243876 207:1.1636999856823684 
0.024751816963205126 1865:0.36691604772372105 343:0.6439547682043371 1873:0.44262935433223294 1587:0.6842019412171081 1021:1.221727966737222 457:0.6631487372982486 2228:0.7863485310685786 272:0.6438482961519162 1791:0.5873098784005784 1701:0.8951566828710632 35:0.27020591254348925 3227:0.4690292339666284 2800:0.7522995400139203 2851:0.3250787159103534 
0.042792194711710446 887:5.105132732653761 794:3.388653029015708 
0.02289223815649983 2806:3.777456818347484 1303:4.915876921026896 
0.052161297120717424 2478:4.37238535363868 1345:2.505747739576304 1733:2.765659032833617 
1.0 829:10.724838638137282 
0.21526976127416 2536:4.265075988676227 2851:1.5170340075816493 1699:2.90827954604576 
0.04669892351701507 1414:4.705718686972014 317:2.623076182490818 1234:3.472238780924983 
0.04514237119177812 1987:14.117156060916042 
0.04348602903742982 3092:12.79522796602868 
0.034588853151568864 2817:3.129745202117614 2269:5.266096780097443 
0.16929099434593461 3031:3.4366003796194784 2551:3.8440645200649617 2229:3.931742655342893 
0.18278366622799236 3227:1.6416023188831994 1462:1.262766717614567 2958:1.9793709290199193 
0.007444449187499162 1977:4.953851347643545 422:5.605132732653762 
0.05619935007731207 1744:2.642443834012008 1675:3.7367551551025078 1517:1.6752402248641443 
0.4804930312635502 3010:21.648867758805878 
0.05476399292951713 1085:3.42518476011057 217:6.266096780097443 
0.046847409339244 2015:6.766096780097443 
0.07000589305635872 35:0.9457206939022125 2883:3.5292890152290104 173:1.9744968851134699 2875:1.1406418023096008 
0.06898328136053816 2875:0.7604278682064005 1047:1.5233126895693538 625:1.0554202025597532 
0.02591608823947516 13:4.705718686972014 2119:3.0621395744510513 
1.0 2006:8.210265465307522 
0.038200443238907755 843:1.029314126444275 398:1.3684038824342162 2869:1.7646445076145052 2598:1.474403495753585 1844:1.2590952426946984 943:1.2537116524582126 81:1.7646445076145052 1049:1.6915241950243607 
0.010100765155194764 2906:3.3025675650956967 923:3.111932115797127 2922:4.510731186731628 
0.026466268680045254 2246:4.0932093616765775 1844:5.036380970778794 
0.0436233883372742 561:14.117156060916042 
0.03642722872162223 2125:2.8234312121832086 3150:1.669794347227823 376:1.989446211894746 1266:2.461960227771687 1511:1.0358093469393603 
0.046671752086680854 1517:2.5128603372962166 2196:7.058578030458021 
0.05000714180158281 3010:1.804072313233823 2630:2.986807764868432 1318:3.8055721142583163 
0.04733128045535624 1785:4.177397853398295 1345:2.505747739576304 1116:3.039052020305347 
0.017874666269308483 923:3.111932115797127 1471:4.705718686972014 1771:4.37238535363868 
0.040183906191854725 2537:13.532193560194886 
0.04630526702617717 1974:4.705718686972014 2673:9.021462373463256 2065:4.177397853398295 
0.04753054079193061 3034:12.79522796602868 
0.24815208487018128 1978:10.117156060916042 
0.057857508161648856 1517:2.5128603372962166 961:5.01484660983285 
0.035452187988661746 2238:4.265075988676227 150:2.8969637687379812 1638:3.3723853536386805 
0.04696812836720589 1985:13.11715606091604 
0.004393897040789345 108:3.2532013520993184 1278:5.2083581713874745 
0.04586478572949777 1808:13.532193560194886 
0.022027049496884523 2995:1.9423790713278075 2678:3.3025675650956967 1511:1.7263489115656006 
0.014237626317273794 2652:2.4218023398333277 1821:2.5391033912776115 
0.08772703670395167 1709:11.0296932196657 
0.03423030212568562 2541:3.8371062825336564 1421:7.058578030458021 
0.21070420364059628 349:5.473615529736865 864:5.362419319068641 
0.04141816052013943 2687:1.2539008654330592 2541:1.0963160807239019 585:1.6156858769797764 1637:1.3056965910594462 2085:1.9331705085992692 1934:1.9331705085992692 2229:3.3700651331510514 
0.042575851506248034 2715:1.1386256403422985 1488:1.8382822032776167 2385:1.9912051765789545 1760:1.9027860571291582 2875:0.7604278682064005 457:1.6578718432456214 
0.5362044324770172 544:2.6730413259851713 1383:3.574946212712427 1063:3.885908147426248 
1.0 127:12.11715606091604 
0.2865412540538165 2467:4.3538825623891695 
0.05749335716260093 2517:2.5590455932057363 2382:1.7250605929172733 1977:1.9815405390574181 1505:2.131544888455749 223:2.0946599742282634 
0.04376065392121216 3221:28.234312121832083 
0.05358347566318199 1517:2.5128603372962166 1452:4.047394123943794 
1.0 2249:8.517243218728913 
0.042228475743775654 2654:6.766096780097443 30:5.828862221139372 
0.03095575699953718 2995:1.9423790713278075 1161:4.177397853398295 900:2.7829905787130382 
0.05796822113271102 2911:4.103267046286145 2851:1.5170340075816493 
0.0416280920282309 155:5.828862221139372 2866:7.058578030458021 
0.04339237638258919 989:14.117156060916042 
0.1931502178014581 2100:10.795227966028678 
1.0 2006:4.105132732653761 2958:3.9587418580398386 
0.013574244514900073 1384:3.0028772013792904 108:4.879802028148978 
0.019448937175371352 2140:1.683362942110497 1517:1.6752402248641443 1452:2.6982627492958624 
0.02067131395749576 1462:1.6836889568194224 922:3.8055721142583163 2851:1.5170340075816493 
0.026785903807526653 3218:1.407455119824091 2568:2.1590455932057355 35:0.75657655512177 2875:0.9125134418476807 2652:1.4530814038999968 
0.008594016787844454 2797:4.642133023375649 909:5.605132732653762 
0.04385894132244327 1744:3.963665751018012 2268:6.39761398301434 
0.047069750046661876 587:2.986807764868432 1167:1.2761328805127452 35:0.9457206939022125 
0.21183040336625797 2101:1.599403495753585 3147:1.639644507614505 3184:1.5387251423573045 2358:1.2887251423573045 2995:0.7283921517479278 142:2.648398526214757 2956:1.2031628705732957 1249:1.4415241950243607 
1.0 1744:3.963665751018012 
0.029218645188790034 2715:2.277251280684597 1699:2.90827954604576 2422:3.357587313852529 
0.039361403703798564 519:4.705718686972014 930:3.472238780924983 1517:1.6752402248641443 
1.0 2006:4.105132732653761 1479:3.8798020281489785 
0.07951819918266594 1403:2.8234312121832086 625:1.2665042430717042 2547:2.2833432685549897 3195:1.9421069766712409 
1.0 39:5.362419319068641 1085:3.42518476011057 
0.042841569684626546 2:14.117156060916042 
0.042113342152649856 2098:3.121855974200332 1678:10.869228547472456 
0.0436892160170078 3010:1.4432578505870586 673:1.3424029195559397 2619:1.84690260231084 1359:2.4234312121832082 1517:1.0051441349184866 
0.27876292289803883 2317:1.0432484007058713 1629:1.327470117719303 2652:0.8072674466111093 923:1.0373107052657091 2292:0.9236544507941052 2852:1.0436214670173893 1511:0.7398638192424002 
0.04445756182032079 2964:0.9332630462171391 5:1.7646445076145052 2714:1.3263237209644712 272:1.3796749203255347 931:2.0167365801308628 2619:1.3192161445077426 2094:1.2930095529226098 
0.11087840255659152 1903:10.117156060916042 
0.031580507433417136 860:7.058578030458021 2503:4.251223108400417 
0.036769016681521306 2875:2.2812836046192015 2358:5.154900569429218 
0.38830228449449156 648:1.3765291776314115 173:1.579597508090776 2697:2.461960227771687 1847:1.9250605929172733 2851:0.9102204045489897 
0.049408486214403774 2587:4.705718686972014 1059:3.598409322009559 2523:1.879799264824051 
0.036964989135895514 2919:2.2206096135371602 166:7.021462373463256 458:3.6230761824908186 
0.04220887222954582 2198:24.23431212183208 
0.042132670970029 1824:13.11715606091604 
1.0 1989:1.0117156060916042 454:0.9752562286701573 2168:1.503577062243876 57:1.0080846601730653 3173:1.503577062243876 1490:1.0924170935615325 2523:0.6265997549413502 3195:1.9421069766712409 
0.043160328952304185 2890:2.273697061971897 2054:2.618324967785329 2194:2.1769412811945847 1511:1.2947616836742004 
0.0414809119210992 1295:13.532193560194886 
0.103793214387481 2098:3.121855974200332 57:4.536380970778794 
0.04637400398797138 2916:14.117156060916042 
0.046543852657888685 2715:0.7590837602281991 549:1.327470117719303 1628:1.245585051700836 1580:1.0432484007058713 984:1.1455334598731595 1369:1.4216919962254089 3187:1.0924170935615325 
0.40541814014403343 1187:1.0208017867093242 158:2.0167365801308628 1446:1.601466495043932 1821:1.088187167690405 455:1.4586093521867887 243:1.1382012773444796 2652:1.0379152884999976 
0.0417194800886997 947:14.117156060916042 
0.047487216623172596 1910:4.510731186731628 910:3.931742655342893 
1.0 2006:4.105132732653761 1733:4.148488549250426 
0.03452722789871109 975:3.76234951182398 791:3.893119591400712 
0.034629582075050756 2919:3.3309144203057404 961:5.01484660983285 
0.02266663008560906 2567:2.314793766447117 1509:2.77928901522901 749:2.368324967785329 2523:1.4098494486180382 
0.042376913373514846 1181:12.79522796602868 
0.047615030012268154 403:6.05857803045802 
1.0 3104:10.162959750529165 
1.0 1553:9.869228547472455 
0.04457818309692752 1258:2.7064387120389775 2987:2.8234312121832086 813:2.457938460513448 1511:1.2947616836742004 
0.05732311871090991 1667:3.8055721142583163 807:5.766096780097443 
1.0 1989:1.4453080087022916 2567:1.3227392951126384 3148:1.7903133657421264 1364:1.1644816823219932 1116:1.3024508658451488 2875:0.6517953156054861 2806:1.0792733766707097 
0.03988175066985798 992:3.7330521848685563 1226:7.058578030458021 
0.03341160128404163 3010:0.5154492323525208 821:0.6269504327165296 3016:0.9665852542996346 2273:0.5873098784005784 305:0.583068553609226 1167:0.3646093944322129 1064:0.6996591404306198 2875:0.32589765780274305 58:0.9139448547163342 1383:0.7660599027240915 1755:0.7103471547349385 807:0.8870918123226835 
0.029183509082798 219:4.973615529736865 1150:6.766096780097443 
1.0 2285:5.473615529736865 
0.06362120566506761 2233:5.654900569429218 2099:6.154900569429218 
0.028409105972411884 2955:13.11715606091604 
0.051296605078452774 1627:3.6230761824908186 100:3.982410353157909 828:3.6490770198245763 
0.9526585026634622 1021:9.162959750529165 
0.36471903355282986 2960:12.532193560194886 
0.037319424711348706 794:3.388653029015708 1062:6.266096780097443 
1.0 1865:3.118786405651629 1511:2.589523367348401 
1.0 889:3.931742655342893 425:2.6075117706748046 2382:2.875100988195455 
0.034248172834235285 673:2.237338199259899 1085:2.2834565067403796 46:9.411437373944027 
0.9089262677035213 2824:2.368324967785329 425:2.6075117706748046 1511:1.7263489115656006 
0.03838864534253446 1345:3.7586216093644564 328:5.397613983014339 
0.5973738040245296 1256:10.210265465307522 
1.0 1746:3.531198034953009 1631:4.665476658795022 
0.051099666761479354 2347:4.510731186731628 1873:2.5082330078826534 1021:3.054319916843055 
0.04339659887588631 2465:2.457938460513448 562:3.4540895195841905 845:4.510731186731628 
0.04753890394746052 1750:13.532193560194886 
0.04400596640959489 1527:21.590455932057356 
0.04491615017022731 2621:14.117156060916042 
0.046973515760906144 3154:14.117156060916042 
0.04169497607727126 1759:12.11715606091604 
0.012773640119587596 763:3.6172565057771 1085:3.42518476011057 
0.045383757477857126 1396:12.11715606091604 
0.01468588200829616 1690:4.915876921026896 1391:6.154900569429218 
1.0 446:6.55857803045802 1407:5.01484660983285 
0.023835500939183837 2467:4.3538825623891695 1042:4.642133023375649 
0.15513733249752798 1517:1.6752402248641443 1995:3.769933712952812 1345:2.505747739576304 
0.0423199407885706 1803:14.117156060916042 
0.0444618226731302 215:11.210265465307524 
0.029320143293587963 2715:1.1386256403422985 1336:2.1325379943381133 2919:1.1103048067685801 2798:2.255365593365814 2198:2.0195260101526733 458:1.8115380912454093 
0.021402617316767084 996:5.766096780097443 205:3.638976136409548 
1.0 1631:3.499107494096267 2249:4.258621609364456 
0.073524106576962 2890:1.2992554639839409 1262:1.9331705085992692 1085:0.9786242171744485 2495:2.0167365801308628 35:0.5404118250869785 2875:0.6517953156054861 2627:1.8278897094326685 
0.039228414184252325 1462:2.525533435229134 2413:7.058578030458021 
0.02937325444309272 2586:0.7371878564820521 2812:0.5643290649917075 497:0.7960113858938168 1667:0.671571549574997 1634:0.5417803214886777 451:0.6350134097663929 2342:0.5299195061257571 1384:0.5299195061257571 2458:0.4029629129541847 64:0.54530241488358 1042:0.6189510697834198 758:0.7611144228516633 433:0.8530151977352453 489:0.8206534092572291 89:0.635479570679659 
0.05831117549176869 2098:3.121855974200332 1315:5.036380970778794 
0.04463895718742394 1734:14.117156060916042 
1.0 1903:10.117156060916042 
0.041348144388123995 1005:11.947231059473728 
0.04544977612675805 2944:12.11715606091604 
0.016007750566594373 2919:2.2206096135371602 1831:3.1032670462861454 
0.3376057441753073 2231:1.694659974228263 2824:1.8946599742282633 150:1.7381782612427887 355:2.2619602277716875 2152:1.4493582682665274 
0.046082053934884945 2995:1.9423790713278075 2437:3.8440645200649617 1345:2.505747739576304 
0.04551032656699107 1925:13.532193560194886 
1.0 1662:5.397613983014339 3039:4.337106282533656 
0.04500497590935936 1677:4.37238535363868 25:3.1978647016196757 1586:4.705718686972014 
1.0 2003:9.90770269528709 
0.050934898179503856 2919:1.1103048067685801 2789:1.7270447597920953 2523:0.9398996324120255 305:1.3604932917548607 544:1.3365206629925857 207:1.7455499785235526 
0.04978102115214064 1865:1.5593932028258144 179:3.1330483900487214 641:2.3830483900487214 425:1.9556338280061036 
0.04711508889616102 1992:5.434614273736228 1479:3.8798020281489785 
0.044928683740926983 3082:7.058578030458021 166:10.532193560194886 
1.0 1278:10.416716342774949 
0.04792972564301274 2053:6.266096780097443 911:5.129587532894234 
0.027048364716779107 1670:2.357587313852529 791:2.595413060933808 
0.06752088905224478 2956:4.812651482293183 1162:4.953851347643545 
1.0 425:3.9112676560122073 
1.0 3031:10.309801138858436 
0.4250040586786263 648:0.9176861184209409 1637:1.015541793046236 829:1.191648737570809 795:1.0591326177994316 1028:1.4216919962254089 1182:0.9069955278365738 279:1.2953027158087491 2851:1.011356005054433 
1.0 2304:9.625302964586366 
0.0302947701109435 3227:1.6416023188831994 2851:1.5170340075816493 2728:3.0621395744510513 
0.04021097775051255 2401:4.667898173695691 1584:6.39761398301434 
0.01401040730014231 1462:1.6836889568194224 2467:2.902588374926113 1002:3.8055721142583163 
0.06923648188981718 2715:0.9759648345791131 2273:1.1746197568011567 1791:1.1746197568011567 1634:3.0700884884358404 2467:2.902588374926113 3072:1.5886989266991476 
0.04647708509329837 2431:12.79522796602868 
0.06562956313736848 1199:3.982410353157909 900:2.7829905787130382 835:3.7367551551025078 
0.030664733931195218 2262:12.79522796602868 
0.04412832840372678 35:1.891441387804425 3144:7.058578030458021 
0.024538468156208273 2331:3.2084343215287885 1517:3.3504804497282885 296:3.241612879379094 
0.05503319010452066 2715:1.707938460513448 177:3.19880699150717 3065:3.077450284714609 829:2.6812096595343204 
0.04712102760977532 2740:12.79522796602868 
0.030555177880299763 173:3.9489937702269398 1391:6.154900569429218 
0.016487853393780626 1464:5.328862221139372 414:4.7083581713874745 
0.02379252866804339 2152:1.4493582682665274 34:2.986807764868432 2111:3.19880699150717 1942:2.518190485389397 
0.6968564528440415 3131:5.828862221139372 1151:4.796797052429514 
0.1419517153812117 404:3.5292890152290104 2023:3.5292890152290104 2304:2.4063257411465915 2370:3.5292890152290104 
0.04511325282012879 1723:13.532193560194886 
0.03565936318619233 1631:1.399642997638507 3223:1.4975598881672862 35:0.75657655512177 263:2.5590455932057363 89:1.9064387120389772 
0.042874093589031465 1462:2.525533435229134 1042:4.642133023375649 
0.026172978025391768 2152:1.4493582682665274 831:2.8830483900487214 673:1.6780036494449244 1275:3.1330483900487214 
0.25828268990477593 3180:4.177397853398295 2851:1.5170340075816493 457:3.315743686491243 
0.030827212312376957 2875:1.1406418023096008 2541:1.9185531412668282 2401:2.3339490868478454 2746:2.564793766447117 
0.025507914776005988 2851:1.137775505686237 2806:1.888728409173742 2523:1.4098494486180382 1407:2.507423304916425 
0.03526972956131537 975:3.76234951182398 950:5.7083581713874745 
0.6501801970092634 2003:4.953851347643545 992:3.7330521848685563 
1.0 1462:1.0102133740916537 2518:2.914431110569686 295:1.9868077648684321 1511:1.2947616836742004 
0.048587374586464574 1760:5.7083581713874745 968:5.01484660983285 
0.04790616822363261 110:2.8830483900487214 1631:1.7495537470481335 96:2.6812096595343204 1116:2.2792890152290104 
0.040995551860780716 1807:10.210265465307522 
0.031894722156450686 2245:4.453851347643546 35:1.891441387804425 
0.049927533570475253 1462:1.6836889568194224 1517:1.6752402248641443 398:3.6490770198245763 
1.0 2518:3.885908147426248 1511:2.589523367348401 
0.016011107035744532 2964:1.8665260924342781 63:2.3830483900487214 2292:1.8473089015882105 249:2.6330483900487214 
0.06425563842807441 2098:2.0812373161335547 231:3.2650759886762257 783:3.8055721142583163 
1.0 2098:3.121855974200332 
0.04478723451178306 1140:13.532193560194886 
0.06337545039264529 3068:1.5934817882822718 1741:1.9125134418476808 2317:1.8778471212705687 1754:1.84690260231084 2245:1.7815405390574186 
0.0528916245707846 1462:0.5612296522731408 1167:0.6380664402563726 1120:2.717307136868114 2652:0.908175877437498 1182:1.0203699688161456 2246:1.0233023404191444 3195:0.9710534883356204 1511:0.6473808418371002 
0.03450140557536446 609:14.117156060916042 2711:6.55857803045802 
0.7216843368362924 673:2.237338199259899 2228:3.931742655342893 2245:2.969234231762364 
0.01740614794483596 2995:1.9423790713278075 2207:3.574946212712427 
0.031447157896731616 2149:2.359045593205736 317:1.573845709494491 30:2.914431110569686 1935:2.3611826797361366 
0.04986910811262816 35:1.26096092520295 1517:1.6752402248641443 1238:3.6490770198245763 
0.04542761583483742 2715:2.277251280684597 729:3.574946212712427 625:2.1108404051195064 
0.8783592459482991 1736:11.947231059473728 
0.036095358734735905 2489:11.947231059473728 
0.017829422309688432 3218:2.814910239648182 755:3.086391688596156 794:2.259102019343805 
0.6110514421046792 2465:9.831753842053793 
1.0 1444:3.982410353157909 
0.03803794025800931 35:0.75657655512177 1533:2.623431212183208 3002:2.359045593205736 2610:2.0145523883115177 425:1.564507062404883 
0.04225565922957973 1862:3.5292890152290104 1423:5.55857803045802 2128:3.5292890152290104 
0.04346337628279053 2320:3.02928901522901 1042:2.3210665116878246 858:2.4063257411465915 2227:3.5292890152290104 
0.03701301610019056 3150:1.669794347227823 2003:1.9815405390574181 2006:1.6420530930615045 1276:2.4234312121832082 575:1.8372837446706312 
0.01368083785470117 1364:4.075685888126976 138:4.258621609364456 
0.029146922240867117 2964:0.9332630462171391 1605:0.9424659041100365 1628:1.4012831831634405 2385:1.493403882434216 641:1.1915241950243607 2608:1.3165241950243607 538:0.9677645786961394 1961:1.1915241950243607 
0.021761894134346465 1084:4.605132732653761 249:5.266096780097443 
0.04000665734164826 874:3.740265720186196 811:4.781283604619202 
1.0 2006:8.210265465307522 
1.0 2540:4.845445653106971 
0.04551480857760138 737:12.532193560194886 
1.0 583:5.7083581713874745 2140:3.366725884220994 
0.050083911416804766 1517:2.5128603372962166 368:6.05857803045802 
1.0 614:11.0296932196657 
0.01595405614149634 1236:5.828862221139372 2243:6.05857803045802 
1.0 2098:3.121855974200332 1511:2.589523367348401 
0.054912629057733614 2875:2.2812836046192015 1178:6.154900569429218 
0.08725839343323441 1615:10.869228547472456 
0.04081288611833821 1462:1.6836889568194224 9:3.0621395744510513 
0.6012703296917413 1012:1.228969230256724 1479:1.1085148651854224 1629:1.7067472942105324 2395:1.532119805448183 3223:1.0696856344052044 1085:0.9786242171744485 102:1.6850325665755257 
0.01756629001091756 35:3.78288277560885 1120:2.173845709494491 515:2.623431212183208 2931:3.27928901522901 
0.05989257232319016 1462:0.8418444784097112 2867:2.352859343486007 243:1.5934817882822718 328:2.1590455932057355 1299:2.623431212183208 
0.051467643390445135 2570:5.105132732653761 1070:4.796797052429514 
0.27787225102551005 1690:19.663507684107586 
0.3993619593390766 3084:4.781283604619202 
0.04381291431000025 2375:13.532193560194886 
1.0 1831:4.654900569429218 2857:6.266096780097443 
0.1595447873807279 648:0.5161984416117793 493:0.7832620975121803 1308:0.8823222538072526 2152:0.45292445883328974 2753:0.6351849844080728 2821:0.7573222538072525 1225:0.5851417849220357 1085:0.45669130134807595 2995:0.3884758142655615 3048:0.7411437373944026 2414:0.5258891580280107 3141:0.5760948419966428 538:1.032282217275882 2851:0.30340680151632987 207:0.698219991409421 
1.0 648:8.259175065788469 
0.051476077243892845 2458:0.8562961900276425 1036:1.2537116524582126 1187:0.8932015633706587 1977:1.2384628369108863 589:1.0703209011548005 763:0.904314126444275 673:0.8390018247224622 56:1.1512831831634402 
0.04182892926271964 35:0.9457206939022125 2652:1.816351754874996 1160:2.664431110569686 828:2.7368077648684324 
0.8653040798122182 1821:2.5391033912776115 1479:2.5865346854326523 1085:2.2834565067403796 
0.025075947201067712 1605:1.884931808220073 693:2.252157901034468 2851:1.137775505686237 1051:3.1330483900487214 
0.12200045117563683 977:11.210265465307524 
0.05261095596906897 3130:7.058578030458021 2194:4.3538825623891695 
0.05338758298995896 35:1.891441387804425 1660:7.058578030458021 
0.03820249243552323 2995:1.9423790713278075 2156:3.2772512806845975 761:3.982410353157909 
1.0 583:5.7083581713874745 2670:6.05857803045802 
0.021105085048801854 2875:1.520855736412801 2759:2.536453806905781 1085:2.2834565067403796 
0.04345022980190076 193:13.532193560194886 
0.0215238298409366 2098:0.780463993550083 152:1.493403882434216 1242:2.352859343486007 2995:0.9711895356639038 1779:2.1325379943381133 791:1.297706530466904 
0.21879293509244052 2050:4.705718686972014 2304:3.2084343215287885 900:2.7829905787130382 
0.13761978739494013 3046:17.92084658921059 1130:4.915876921026896 
1.0 1844:10.072761941557587 
0.04617155302161629 2162:13.532193560194886 
0.15668495257302756 2003:2.4769256738217726 1462:1.262766717614567 2581:3.5292890152290104 2273:2.0555845744020242 
0.2158906651181719 2851:2.275551011372474 1764:4.694617803176421 
0.020711732657763368 1235:2.9198680187659853 3106:4.37238535363868 1021:3.054319916843055 
0.020268973649198524 2652:2.4218023398333277 35:1.26096092520295 317:2.623076182490818 
0.02904223395892659 35:0.9457206939022125 3227:1.6416023188831994 2995:1.4567843034958556 1147:2.0436603888942004 
0.022634710803482255 875:6.266096780097443 
0.031456639920643154 1826:4.705718686972014 2273:2.740779432536032 900:2.7829905787130382 
0.026512187147841083 2231:4.236649935570657 731:6.39761398301434 
1.0 975:2.5082330078826534 1462:1.6836889568194224 
0.024313262616576663 2919:1.6654572101528702 35:0.9457206939022125 2875:1.1406418023096008 761:2.986807764868432 
0.7120964774552696 2356:11.11715606091604 
0.056621801415272704 3227:1.6416023188831994 2843:3.5292890152290104 1390:2.6041790856937372 1131:3.1330483900487214 
0.013569890233031448 2200:2.4887014565790375 1303:3.2772512806845975 
0.04631937157436408 551:1.6156858769797764 1873:1.07495700337828 1167:0.7292187888644258 3187:1.4045362631505418 196:1.6850325665755257 3165:3.045064126365355 1511:0.7398638192424002 
0.042707035967535764 826:14.117156060916042 
0.22289669066578605 2152:1.2077985568887726 710:0.9749853307397529 788:0.9469742129795409 2285:0.9952028235885209 2523:0.5126725267701957 1553:0.8972025952247686 1045:0.9157056310506898 2851:0.413736547522268 3195:0.7768427906684964 1511:0.5179046734696802 
0.04944417260888228 670:6.55857803045802 
0.3518169947207539 1821:3.8086550869164175 495:7.058578030458021 
0.040388441450267494 1631:3.499107494096267 216:4.16789817369569 
0.041532273921327405 2975:14.117156060916042 
0.016987469686216734 748:5.058578030458021 279:5.828862221139372 
0.22742182794752536 2100:1.5421754237183825 2592:0.9665852542996346 2273:0.5873098784005784 345:0.8951566828710632 568:0.93693971863686 2652:0.5189576442499988 29:0.7105165042481235 1928:2.3132631355775737 1973:0.7226540043511458 1554:0.7522995400139203 138:0.6083745156234938 2851:0.3250787159103534 2368:1.0083682900654314 
0.038845694078537926 705:5.129587532894234 1014:7.058578030458021 
0.01930343750729839 3010:2.4054297509784304 1401:2.982410353157909 2523:1.879799264824051 
0.04499220336075668 808:14.117156060916042 
9.706324607232086E-4 1627:0.9881116861338597 1631:0.6362013625629577 2437:1.0483812327449895 2056:1.1392903236540806 942:1.1190728308053124 2876:1.1392903236540806 1506:1.1924687328105492 2851:0.413736547522268 458:1.2076920608302728 
0.03213594892899878 2995:2.9135686069917113 321:7.058578030458021 
0.041235023529942044 1283:14.117156060916042 
0.04413738973749894 2995:1.9423790713278075 57:3.0242539805191955 1152:3.472238780924983 
0.03218507604595617 2140:2.2444839228139957 1825:3.598409322009559 567:3.6765644065552334 
0.054966683685891124 1517:1.6752402248641443 139:3.157766623713772 1958:3.982410353157909 
0.04702235487397227 658:11.657724442278743 
0.7337098944296045 648:2.753058355262823 1546:2.5082330078826534 1509:3.705718686972013 
0.38582188480246093 2057:2.547140876649881 1517:1.6752402248641443 1754:3.0781710038513994 
0.041955475220128706 1646:11.532193560194886 
0.017872397770228435 2964:2.4887014565790375 1375:3.574946212712427 1517:3.3504804497282885 
0.046205097666395745 1893:14.117156060916042 
0.4271505850538758 1401:17.894462118947455 
0.035303027639366096 1670:3.5363809707787937 150:4.345445653106972 
0.07928798079838456 2919:1.6654572101528702 2759:1.902340355179336 2578:3.27928901522901 2474:3.19880699150717 
1.0 2249:2.8390810729096376 794:2.259102019343805 1201:3.982410353157909 
0.20797097449005472 1103:4.37238535363868 2851:1.5170340075816493 296:3.241612879379094 
0.028113940267905774 2715:1.3663507684107585 150:2.172722826553486 1462:1.262766717614567 376:2.4868077648684324 
0.03517597278969701 1462:0.7215809814940382 3136:2.0167365801308628 138:1.2167490312469875 625:1.0554202025597532 1130:1.6386256403422987 1511:0.8631744557828003 
0.04806061916062632 35:1.891441387804425 865:7.058578030458021 
0.042042690216909456 2033:13.532193560194886 
0.041106864163769206 1012:2.457938460513448 2231:2.1183249677853286 2084:2.648398526214757 897:2.94880699150717 
0.04109813434234146 1462:2.525533435229134 2443:5.828862221139372 
0.034302865165683635 2851:2.275551011372474 1371:5.654900569429218 
0.05241221829772004 1631:3.499107494096267 1187:3.572806253482635 
0.34121415438647273 1462:0.45918789731438797 2428:1.0597931311162494 1913:2.0053987672119455 97:0.9688840402071586 1633:0.9157056310506898 2889:1.0483812327449895 2789:0.942024414432052 2354:2.0757666077772634 532:1.0722934514571527 2523:0.5126725267701957 2800:0.9574721418358987 
1.0 1821:7.617310173832835 
0.025680764744440504 2890:4.547394123943794 89:4.766096780097443 
0.026865312246080526 2715:1.707938460513448 2138:2.7368077648684324 1744:1.981832875509006 
0.046683937127252856 2798:13.532193560194886 
0.03957458484387141 2458:1.370073904044228 1041:2.306438712038977 286:2.590567139688143 
0.7751871479923584 2715:0.9759648345791131 1662:1.5421754237183825 1462:0.7215809814940382 2690:1.87387943727372 1167:0.7292187888644258 1511:0.8631744557828003 
0.04287187084747072 3223:1.0696856344052044 1634:1.3157522093296459 3227:0.9380584679332568 3099:2.0195260101526733 1595:1.7992046610047796 1829:1.6646455073285122 
1.0 1821:3.8086550869164175 
1.0 1528:6.766096780097443 992:3.7330521848685563 
0.02323782230046174 2608:3.510731186731628 794:6.777306058031416 
0.054009771040783035 2523:2.8196988972360764 1235:4.379802028148978 
0.04443805326175142 2875:4.562567209238403 699:9.05106687045827 
0.04409600038809125 35:1.891441387804425 2699:6.39761398301434 
1.0 1821:3.8086550869164175 2826:5.654900569429218 
0.04476621223280555 1631:3.499107494096267 1021:4.5814798752645824 
0.05219952720480321 2098:1.560927987100166 35:0.9457206939022125 1429:3.510731186731628 
0.028763554171911503 3104:2.032591950105833 2759:1.5218722841434689 1085:1.370073904044228 2875:0.9125134418476807 166:4.212877424077955 
0.04118298258251288 2810:13.532193560194886 
0.8629484415180506 2796:10.117156060916042 
1.0 2919:2.2206096135371602 425:2.6075117706748046 3223:2.495933146945477 
0.01404612146740704 2995:2.9135686069917113 1345:3.7586216093644564 
0.045488470156679776 1728:13.11715606091604 
1.0 1853:11.79522796602868 
0.10414719951281531 2480:6.05857803045802 726:3.8798020281489785 
0.031568752827729245 2057:3.8207113149748215 138:4.258621609364456 
0.015277607970195556 2964:2.4887014565790375 3096:4.510731186731628 
0.0226312411173741 2851:1.5170340075816493 139:4.736649935570658 
0.04445043783280275 2523:1.879799264824051 1187:4.7637416713101794 1733:2.765659032833617 
0.024630306507303676 35:1.26096092520295 2919:2.2206096135371602 2601:3.357587313852529 
0.044021856433912716 3192:12.79522796602868 
0.05055638419542301 2523:2.8196988972360764 900:4.174485868069557 
0.05788420063864691 1713:1.9331705085992692 1317:1.4961856958773307 3110:4.0334731602617255 1821:1.088187167690405 108:1.394229150899708 1068:1.053669867787842 1804:1.6474562228849836 
0.04428664162547185 38:12.532193560194886 
0.04403160333972203 3169:13.532193560194886 
0.033200663365069355 591:6.766096780097443 57:4.536380970778794 
0.045732395591815446 244:14.117156060916042 
0.04788264025347126 1685:12.532193560194886 
0.04689310127377892 1531:12.11715606091604 
0.12132508368424381 3065:12.309801138858436 
0.12514682286974488 1462:1.262766717614567 1643:3.1330483900487214 1245:3.5292890152290104 332:3.27928901522901 
0.047941627349767105 3003:12.79522796602868 
0.03980133113471399 2842:10.94723105947373 
0.03037103557244493 1167:2.5522657610254904 794:3.388653029015708 
0.017017530661599844 1041:3.8440645200649617 375:4.039052020305347 1085:2.2834565067403796 
0.04775050742106074 1120:10.869228547472456 
0.02360734906447666 3010:3.608144626467646 1077:5.328862221139372 
0.03888652359728967 2346:6.55857803045802 2919:3.3309144203057404 
0.5759596282668863 355:11.309801138858436 
0.02560945266873658 1670:3.5363809707787937 1345:3.7586216093644564 
0.05346999824773018 2715:2.277251280684597 791:3.893119591400712 
0.04372101915908178 1370:14.117156060916042 
1.0 1198:9.562567209238404 
0.03046428024254607 875:4.177397853398295 507:5.828862221139372 
1.0 1517:2.5128603372962166 2249:4.258621609364456 
0.04221226146655763 319:13.532193560194886 
0.1363531536360547 3031:1.0309801138858437 2401:0.9335796347391382 2594:1.0362268558752572 1670:0.7072761941557588 1755:0.92345130115542 2730:1.311715606091604 35:0.378288277560885 401:1.2532193560194886 1761:1.311715606091604 1937:1.2795227966028682 
0.03071558551594577 2051:2.7064387120389775 2817:1.8778471212705687 1927:2.3894462118947457 1821:1.9043275434582088 
0.03188773832771081 2467:4.3538825623891695 108:4.879802028148978 
0.02157456691750527 2875:0.6517953156054861 1517:0.7179600963703475 1622:1.6578718432456214 794:1.1295510096719026 858:1.9250605929172733 
0.04750307818728614 2505:12.532193560194886 
0.04828383520221671 2322:6.05857803045802 690:5.397613983014339 
0.047367181778547714 874:2.4935104801241303 906:4.705718686972014 1511:1.7263489115656006 
0.021948980653665573 2062:5.473615529736865 794:3.388653029015708 
0.04737919153482936 1745:12.532193560194886 
0.547360045518423 1304:11.947231059473728 
0.017868829461870205 2398:2.937791770912979 1425:2.687291208471617 100:3.982410353157909 
0.08318220648830582 1167:1.2761328805127452 3068:2.655802980470453 2414:2.6294457901400534 
0.08897007164469281 2098:0.3902319967750415 1865:0.3898483007064536 2759:0.475585088794834 1170:0.5045476213473492 2875:0.2851604505774002 794:0.4235816286269635 2249:1.2167490312469875 2851:0.35008477098038066 1659:0.9341887887756269 1511:0.5179046734696802 
0.04296598350750954 1098:11.657724442278743 
0.033595519545738195 2875:1.520855736412801 794:3.388653029015708 
0.041416995925496844 2336:7.058578030458021 
0.962758223980337 1865:0.8910818301861796 562:1.7270447597920953 2403:1.7183001898097392 2140:1.1222419614069978 2851:0.7585170037908247 207:3.4910999570471053 
1.0 2906:9.90770269528709 
0.013539397884148143 2851:2.275551011372474 265:5.2083581713874745 
0.034143713395200684 1631:0.5383242298609642 3150:0.6422285950876242 1265:0.8304021512329752 2875:0.38021393410320026 2456:1.0483812327449895 1546:1.3681270952087201 1085:0.622760865474649 35:0.3438984341462591 1553:0.8972025952247686 2806:0.6868103306086335 89:0.8665630509268077 
0.024924567139092167 3039:2.168553141266828 1085:1.712592380055285 813:2.457938460513448 993:3.5292890152290104 
0.016041236457804763 551:2.2619602277716875 2022:3.5327015368215173 1468:1.8017263208275744 843:3.29380520462168 1511:1.0358093469393603 
0.033311148825671294 1357:4.483704470705679 2009:6.39761398301434 
0.7516846472243522 2098:3.121855974200332 1462:2.525533435229134 
0.014881536638364936 831:3.8440645200649617 749:3.157766623713772 
1.0 1462:1.6836889568194224 
0.40319052510682307 3068:2.655802980470453 1605:2.513242410960097 1624:2.7057186869720136 
0.05195206227037177 2715:1.3663507684107585 3227:1.3132818551065597 975:1.504939804729592 2245:2.226925673821773 
0.05797314547534405 2098:3.121855974200332 138:4.258621609364456 
0.04188727670375524 686:23.06438712038977 
1.0 648:4.129587532894234 2523:2.8196988972360764 
0.047485304922357675 35:3.78288277560885 560:6.55857803045802 
0.035510474577858935 673:3.356007298889849 562:5.181134279376286 
1.0 1865:4.158381874202171 2440:6.05857803045802 
0.05063628734047043 2715:0.7590837602281991 2350:1.129217750058796 1167:0.5671701691167756 35:0.4203203084009833 286:1.15136317319473 919:1.4574617845462265 2067:1.129217750058796 439:1.2537116524582126 
0.23916476422869032 2540:4.845445653106971 1754:4.6172565057771 
0.0867837845847928 2728:3.0621395744510513 1167:1.701510507350327 1511:3.452697823131201 
0.0363458669230859 3150:4.174485868069557 512:5.236649935570658 
0.04469117166329143 1048:14.117156060916042 
0.022137386857860243 2919:1.1103048067685801 376:1.989446211894746 1701:2.5064387120389773 405:2.3315448884557486 992:1.4932208739474226 
0.01692578817374569 3042:2.518190485389397 1375:2.6812096595343204 1592:2.4673071368681136 
0.8902093400526021 2003:2.4769256738217726 1462:1.6836889568194224 2054:3.4910999570471053 
0.0362934556738251 2919:1.3323657681222962 1822:3.27928901522901 2194:2.1769412811945847 992:1.8665260924342781 
0.02813564485773452 3042:3.357587313852529 2885:4.265075988676227 
0.04213872780623215 35:3.78288277560885 1731:7.058578030458021 
0.015451180415146357 2541:2.5580708550224376 1596:4.705718686972014 1511:1.7263489115656006 
0.01527970410308723 1978:5.058578030458021 1495:5.397613983014339 
1.0 1796:12.79522796602868 
0.02559835646514689 2995:0.9711895356639038 172:1.8683775775512539 2875:0.9125134418476807 544:1.603824795591103 2419:2.5590455932057363 
0.04439907041075126 1046:14.117156060916042 
0.04756241629065838 541:7.058578030458021 476:4.812651482293183 
0.0369418233540787 216:41.6789817369569 
0.04721482804571667 787:7.058578030458021 2617:6.55857803045802 
0.2662479791821107 901:6.766096780097443 1832:5.7083581713874745 
0.05023603848836357 35:1.891441387804425 25:4.796797052429514 
1.0 2652:3.632703509749992 538:3.8710583147845576 
0.32299491320183066 1546:3.76234951182398 1511:2.589523367348401 
0.03723117015697715 2806:3.777456818347484 1161:6.266096780097443 
0.04436449807578652 3235:6.766096780097443 2156:4.915876921026896 
0.1584646935087468 2285:1.5638901513533898 3200:1.4518513929327377 1043:2.0167365801308628 2523:1.6112565127063292 1368:1.7585430198369194 794:1.1295510096719026 
0.027119307578197166 3227:1.3132818551065597 2875:1.1406418023096008 1735:2.6041790856937372 1511:1.2947616836742004 
0.04495065997856529 2486:11.947231059473728 
0.021266292794301225 3227:2.1888030918442656 2875:1.520855736412801 699:3.0170222901527564 
0.5994230835796355 3068:2.655802980470453 763:2.4115043371847333 2140:2.2444839228139957 
0.10301705017633142 2919:0.9516898343730686 1059:1.5421754237183825 2759:1.0870516315310492 2523:0.8056282563531646 2200:1.0665863385338732 1511:0.8631744557828003 
0.03872969242053623 1865:3.118786405651629 575:4.5932093616765775 
0.045687958750646546 2084:10.593594104859028 
1.0 648:8.259175065788469 
1.0 1462:1.6836889568194224 874:2.4935104801241303 
1.0 1167:0.3646093944322129 1169:2.0167365801308628 726:0.5542574325927112 673:0.47942961412712126 1488:0.7878352299761214 2721:0.8198249570983649 2523:0.5126725267701957 2625:1.1924687328105492 2851:1.241209642566804 2311:0.9749853307397529 544:0.7290112707232286 
0.043798739556648605 1499:14.117156060916042 
0.18020792447535355 2540:3.230297102071314 425:2.6075117706748046 14:3.7367551551025078 
1.0 2824:9.473299871141316 
0.012872324458210498 3010:2.886515701174117 1573:2.5590455932057363 1605:1.5079454465760584 295:1.9868077648684321 
0.04044129623590458 2523:2.8196988972360764 2001:6.39761398301434 
0.18193587007510295 2954:23.06438712038977 
0.04973647377025549 35:1.26096092520295 1167:1.701510507350327 1125:4.37238535363868 
0.023182243353343977 2652:3.632703509749992 1167:2.5522657610254904 
1.0 2098:2.0812373161335547 
0.02545555470694873 1462:1.0102133740916537 35:0.9457206939022125 511:3.1330483900487214 
0.034976656764666304 2715:1.3663507684107585 2140:1.3466903536883976 1235:1.7519208112595912 1511:1.2947616836742004 
1.0 1198:9.562567209238404 
0.042260374609547804 2715:0.853969230256724 648:1.0323968832235586 1235:1.0949505070372445 1241:1.7646445076145052 399:1.7646445076145052 35:0.9457206939022125 3068:0.9959261176764198 2138:1.3684038824342162 
0.041677334867172865 3209:14.117156060916042 
0.034404231895273064 1517:0.3865938980455718 1112:0.9842483050791293 97:0.8198249570983649 2875:0.35096670840295413 2072:1.0090120046858493 1187:0.54966250053579 1755:0.7103471547349385 474:1.0443494633495738 2995:0.4855947678319519 546:1.2301994145631714 
0.027736943616378126 35:1.26096092520295 1167:1.701510507350327 1021:3.054319916843055 
0.046932603471514636 820:13.11715606091604 
0.054204656011998524 2995:1.1654274427966846 544:1.603824795591103 1755:1.84690260231084 575:1.8372837446706312 1160:2.131544888455749 
0.030399806067643358 272:2.414431110569686 3162:4.705718686972014 2471:3.2650759886762257 
0.045243721589570046 328:10.795227966028678 
0.03954408292305626 2851:1.5170340075816493 1116:3.039052020305347 2483:4.103267046286145 
0.009987029942741792 1946:6.266096780097443 1315:5.036380970778794 
0.030152388270967046 1167:1.701510507350327 385:4.705718686972014 2523:1.879799264824051 
0.044385164454019535 2511:14.117156060916042 
0.04502529143534616 2875:2.2812836046192015 2421:7.058578030458021 
0.03701515169358506 874:3.740265720186196 2087:6.766096780097443 
1.0 2098:3.121855974200332 
0.0415656759464696 2194:4.3538825623891695 2281:23.315448884557487 
0.046969105826066566 1072:13.11715606091604 
0.04682243107826861 1377:14.117156060916042 
0.044604930139521194 1938:14.117156060916042 
0.7031883537276606 726:3.8798020281489785 2294:6.39761398301434 
0.01942047776698815 2918:6.39761398301434 1850:6.766096780097443 
0.04215733398401618 2715:3.415876921026896 2725:7.058578030458021 
0.0664983683404915 2541:3.8371062825336564 1517:1.2564301686481083 1968:2.507423304916425 624:2.8830483900487214 
0.3058197026910552 1359:0.8655111472082885 1469:0.9665852542996346 2273:0.5873098784005784 3068:0.5691006386722398 1070:0.6852567217756448 1177:0.8012858725211499 1027:1.0859350816089264 425:0.6017334855403396 3085:1.0859350816089264 2523:0.43379983034401176 2527:1.0859350816089264 2960:0.9640148892457605 1511:0.39838821036129246 
0.038774833741044755 2715:0.6210685310957993 1516:1.2833778237196403 211:0.8750275422351242 843:0.82345130115542 2462:0.8813375312738938 35:1.134864832682655 2875:0.45625672092384034 267:1.179522796602868 1484:1.0795227966028678 2806:0.7554913636694969 
0.022058986830030495 2586:6.266096780097443 2851:2.275551011372474 
0.28141648454902435 1688:2.590567139688143 138:2.8390810729096376 1511:1.7263489115656006 
0.04615190713067405 1338:14.117156060916042 
0.024695177268374464 35:1.26096092520295 2851:1.5170340075816493 1672:3.574946212712427 
0.022828822254677777 2292:3.694617803176421 339:4.953851347643545 
0.0442965688456143 2542:12.79522796602868 
0.05198160373497813 3032:1.0859350816089264 1462:0.38854360541986677 1868:1.0258167615715363 343:0.9122692549561441 3150:0.6957476446782596 3223:0.6239832867363693 1778:1.0443494633495738 1821:0.6347758478194029 1479:0.6466336713581631 2119:0.7655348936127628 2851:0.3792585018954123 
0.40682549162517523 673:3.356007298889849 1070:14.39039115728854 
0.025511791571105932 2004:3.5292890152290104 253:3.3830483900487214 2194:2.1769412811945847 832:2.827450284714609 
0.05315673311339185 873:11.416716342774949 
0.02271502043308775 2246:2.7288062411177183 874:2.4935104801241303 343:3.6490770198245763 
0.26307235341717594 2716:1.5881651515594342 1167:0.7292187888644258 2768:2.0516335231430727 2443:1.942954073713124 1147:1.6349283111153605 
0.025857965338737507 2230:4.953851347643545 643:5.89761398301434 
0.03188850270801593 1860:1.7874731063562135 314:1.9658713276714466 3172:1.701710910884587 433:2.5590455932057363 383:2.306438712038977 
0.037919403792137915 2098:1.560927987100166 2919:1.6654572101528702 1147:2.0436603888942004 2031:3.27928901522901 
0.027716869258397964 1713:1.0409379661688374 1669:1.0409379661688374 568:1.0090120046858493 1479:0.5968926197152274 1831:0.7758167615715363 1690:0.8193128201711494 68:0.9610161300162404 2525:1.1764296717430034 35:0.3152402313007375 142:0.9630540095326389 295:0.722475550861248 
1.0 954:2.7064387120389775 1517:3.01543240475546 1670:1.4145523883115176 3132:3.5292890152290104 
0.042970373095645234 3168:13.11715606091604 
0.036644537260442984 1670:3.5363809707787937 699:4.525533435229135 
0.6066274818066093 35:0.47286034695110624 2995:0.7283921517479278 1865:0.7796966014129072 2609:1.7585430198369194 1595:1.5421754237183825 1116:1.3024508658451488 575:1.3123455319075934 
0.034119321906399505 1364:4.075685888126976 811:4.781283604619202 
0.03947123319261901 2578:13.11715606091604 
1.0 953:0.7997017478767925 2098:0.3902319967750415 1631:0.49987249915660953 3018:0.6578761046648229 3072:0.6808709685853489 2652:0.5189576442499988 1225:0.6687334684823265 1130:0.7022681315752709 2398:0.6295268080527813 1036:0.71640665854755 1890:0.7105165042481235 1791:0.5873098784005784 35:0.27020591254348925 992:0.5332931692669366 
0.25061956699610644 2824:3.157766623713772 95:3.3876532501763883 3126:4.039052020305347 
0.02695094312122457 3227:3.283204637766399 2541:3.8371062825336564 
0.026515205823557406 3072:3.177397853398295 2851:1.5170340075816493 2661:5.9128190316483025 
1.0 648:8.259175065788469 
0.045172392458922225 2161:3.19880699150717 1918:3.077450284714609 968:2.507423304916425 439:2.507423304916425 
0.06507239568022777 3068:2.655802980470453 2737:3.2772512806845975 295:2.649077019824576 
0.045096811175621976 944:14.117156060916042 
0.021187371214450832 2851:1.137775505686237 2523:1.4098494486180382 1517:1.2564301686481083 758:2.8541790856937372 
0.026754542475552066 2797:2.3210665116878246 2784:3.6765644065552334 1423:3.705718686972013 
0.01606185459297931 975:1.2541165039413267 1462:0.8418444784097112 3227:1.3132818551065597 813:1.9663507684107586 2557:2.623431212183208 
0.04526804168780309 2767:13.532193560194886 
0.0464295947848416 2499:13.11715606091604 
0.040161122294008894 3227:1.6416023188831994 1745:3.1330483900487214 2292:1.8473089015882105 305:2.0407399376322912 
0.0470363879390054 859:12.11715606091604 
0.014046980122897179 2687:0.5851537372020944 1517:0.33504804497282886 1996:0.6806843643538348 1585:0.7149892425424854 1877:0.9411437373944027 1600:1.0409379661688374 583:0.8782089494442269 2403:0.7930616260660336 983:1.0090120046858493 2357:0.9190177738056714 2630:0.9190177738056714 140:0.9469077799121874 
1.0 2098:3.121855974200332 
0.04789009717410082 3227:2.1888030918442656 2651:4.705718686972014 296:3.241612879379094 
0.7771487088715145 2851:0.9102204045489897 2797:1.8568532093502599 625:1.58313030383963 3141:2.1603556574874108 
0.0318323126357969 317:3.9346142737362277 1086:6.766096780097443 
0.016201294494708002 2062:3.6490770198245763 2061:4.177397853398295 205:2.4259840909396986 
0.11702242731464679 1690:1.6386256403422987 1462:0.8418444784097112 2540:1.615148551035657 1582:2.18619267681934 1903:2.0234312121832083 
0.09570724799685215 2341:12.79522796602868 
0.05542155100608332 2715:3.415876921026896 1724:4.51484660983285 
0.09867765771043929 2098:1.0406186580667773 821:1.4628843430052358 1193:2.1325379943381133 2276:2.1325379943381133 243:1.3279014902352264 851:2.352859343486007 
0.022384393080212 2467:2.902588374926113 2062:3.6490770198245763 9:3.0621395744510513 
0.041038527675469345 3:12.79522796602868 
0.1984312479836169 2317:2.3473089015882107 376:2.4868077648684324 791:1.946559795700356 1903:2.5292890152290104 
0.06592459257927982 2233:5.654900569429218 30:5.828862221139372 
0.04974292304920051 1462:2.525533435229134 813:4.915876921026896 
1.0 1989:1.1241284512128935 1462:0.6313833588072835 1187:1.0208017867093242 693:1.2869473720196958 35:0.5404118250869785 2995:0.8324481734262031 2140:0.9619216812059982 
0.1928071456557361 1821:1.523462034766567 229:2.0724537117505144 3035:2.2619602277716875 880:2.0724537117505144 2109:2.7064387120389775 
0.03293026707180146 2715:3.415876921026896 992:3.7330521848685563 
0.005671206699675531 1462:2.525533435229134 2890:4.547394123943794 
1.0 356:11.79522796602868 
0.014380528421082861 2715:2.277251280684597 3227:2.1888030918442656 34:3.982410353157909 
0.5351843033498618 339:9.90770269528709 
0.05050028119114728 1305:4.265075988676227 1182:2.7209865835097213 482:3.4366003796194784 
0.05546030912972575 1517:2.5128603372962166 1182:4.0814798752645824 
1.0 1821:7.617310173832835 
0.04753471099979385 942:3.077450284714609 795:4.766096780097443 
0.02270648682304475 2259:5.55857803045802 1517:2.5128603372962166 
1.0 2006:4.105132732653761 1511:2.589523367348401 
0.04844506079543409 2158:7.058578030458021 
0.045449008056895474 2098:0.4162474632267109 211:0.6416868643057577 2079:0.6506402704198637 237:0.6908179039168381 665:0.6944477561849965 1931:0.7964820706315818 3113:0.9411437373944027 791:0.5190826121867615 1248:0.7062396069906018 571:0.6775306500352777 387:0.9665852542996346 2369:0.9665852542996346 42:0.8782089494442269 
0.44964779028339985 2952:6.55857803045802 794:3.388653029015708 
0.044594592949265016 1984:13.532193560194886 
0.5376493004498795 1973:10.117156060916042 
0.03143230925832359 975:1.2541165039413267 391:1.2682269034528906 1837:2.255365593365814 2652:1.2109011699166639 1364:1.358561962708992 1765:2.1325379943381133 
0.01495732900304931 2712:3.077450284714609 1085:1.712592380055285 2229:2.94880699150717 1511:1.2947616836742004 
0.026449199187619853 1622:4.973615529736865 1470:6.05857803045802 
0.13133121455327862 2098:2.0812373161335547 1235:2.9198680187659853 1831:3.1032670462861454 
0.031874666216674175 1462:0.6313833588072835 1036:1.2537116524582126 463:1.3684038824342162 1771:1.639644507614505 1059:1.3494034957535848 350:1.2762831831634402 383:1.6474562228849836 
0.01843282075680843 2919:3.3309144203057404 376:4.973615529736865 
1.0 2956:3.2084343215287885 
1.0 2140:3.366725884220994 2540:4.845445653106971 
0.04298228385528294 2088:12.309801138858436 
1.0 1995:11.309801138858436 
0.61512801912255 1631:2.332738329397511 1624:2.7057186869720136 1865:2.0791909371010857 
0.04722465818858894 264:13.11715606091604 
1.0 2006:4.105132732653761 1187:3.572806253482635 
0.03460921716207273 1167:5.104531522050981 1084:4.605132732653761 
0.09179236598203352 2074:1.4415241950243607 2964:1.8665260924342781 2875:0.5703209011548004 2652:0.908175877437498 1248:1.3241992631073785 2852:1.0436214670173893 1303:1.228969230256724 1407:1.2537116524582126 
0.047756980950245685 3010:1.804072313233823 2669:2.6988069915071695 376:2.4868077648684324 1733:2.074244274625213 
0.0460478129968848 985:14.117156060916042 
0.029818455779520962 2875:0.6517953156054861 977:1.601466495043932 791:1.1123198832573462 2759:1.0870516315310492 1085:1.1417282533701898 1511:0.8631744557828003 
0.028992787781137216 1517:2.5128603372962166 305:4.0814798752645824 
0.05132918755158952 3079:2.352859343486007 3150:1.3914952893565191 454:1.4628843430052358 263:2.1325379943381133 2172:1.3828295164168085 3195:1.2947379844474938 
0.04022804544294403 1637:3.0466253791387077 843:5.489675341036133 1511:1.7263489115656006 
0.04480796566176072 90:14.117156060916042 
1.0 2983:3.705718686972013 2057:2.547140876649881 726:2.5865346854326523 
0.2026655028567087 648:0.5161984416117793 44:0.6268558262291063 457:0.6217019412171081 1130:0.614484615128362 975:0.4702936889779975 2292:0.4618272253970526 691:0.7693625711786523 2523:0.7519197059296203 3140:0.7194829958255419 2848:0.93693971863686 142:0.7566852932042162 296:0.7480645106259448 1511:0.39838821036129246 
0.029283986817021712 2687:4.388653029015708 1672:5.362419319068641 
0.8732619645101364 930:5.2083581713874745 
0.04963209213092101 35:0.75657655512177 3227:1.3132818551065597 1425:1.6123747250829703 205:2.911180909127639 2523:1.1278795588944306 
0.03726456752616397 3010:3.608144626467646 1509:5.55857803045802 
0.08018531292717754 2715:1.707938460513448 2292:1.8473089015882105 2956:3.2084343215287885 
0.291948142869602 1950:12.309801138858436 
0.011193073658353325 963:6.55857803045802 2152:3.623395670666318 
0.9832933913862046 2403:3.4366003796194784 2619:3.0781710038513994 2292:2.463078535450947 
0.3634834842300592 243:2.655802980470453 583:3.8055721142583163 690:3.598409322009559 
0.470315292916113 392:1.457215555284843 2919:0.8327286050764351 1670:0.8840952426946984 3068:0.9959261176764198 2237:1.2762831831634402 3131:1.457215555284843 249:1.3165241950243607 
0.04263894286352267 3061:11.947231059473728 
0.02669104152667901 1916:1.942954073713124 2394:2.352859343486007 2787:2.255365593365814 35:0.630480462601475 1454:2.255365593365814 
0.08202128796055368 2233:5.654900569429218 1903:5.058578030458021 
0.280352116828277 370:3.574946212712427 585:5.654900569429218 
0.028561980064837098 2588:11.11715606091604 
0.03935624475886593 2523:2.8196988972360764 1028:6.39761398301434 
0.04633126441777963 857:13.11715606091604 
0.264643379988528 2964:3.7330521848685563 2759:3.804680710358672 
0.0367384163386214 1865:2.0791909371010857 2875:1.520855736412801 2873:4.510731186731628 
0.05648140570067837 1167:1.2761328805127452 2098:1.560927987100166 1364:5.434247850835968 
0.049409500685801216 874:3.740265720186196 1796:6.39761398301434 
0.03500132645311527 1462:0.6313833588072835 1357:1.1209261176764198 583:1.4270895428468686 35:0.9457206939022125 892:1.358653568434057 1151:1.3705134435512896 1511:0.7398638192424002 
0.04491048018050046 221:6.766096780097443 979:7.058578030458021 
0.04277549205284467 671:13.532193560194886 
0.04444231219232405 2098:3.121855974200332 693:4.504315802068936 
0.02248259327714884 35:0.75657655512177 1462:1.0102133740916537 1865:2.495029124521303 961:2.00593864393314 426:2.8234312121832086 
0.011694078260004868 2503:4.251223108400417 2249:4.258621609364456 
0.1058981833016422 2411:11.532193560194886 
1.0 2098:2.0812373161335547 1631:2.332738329397511 1517:1.6752402248641443 
1.0 1821:2.5391033912776115 2523:2.8196988972360764 
0.04489460041385065 972:14.117156060916042 
0.19110851265627404 1858:1.6915241950243607 709:1.3684038824342162 1580:1.1736544507941054 3038:1.5665241950243607 1084:1.1512831831634402 3223:0.9359749301045539 1147:1.0218301944471002 89:1.1915241950243607 
0.18052573905695912 1238:3.6490770198245763 215:3.7367551551025078 1511:1.7263489115656006 
0.17305870114153699 880:5.181134279376286 1846:7.058578030458021 
0.016608047320384636 2964:1.2443507282895188 788:1.7361193904624914 394:2.255365593365814 749:1.578883311856886 2806:1.5109827273389937 
0.0526641837519282 2794:7.058578030458021 968:5.01484660983285 
0.07091894423248243 2728:3.0621395744510513 2382:2.875100988195455 2514:3.403421821769174 
1.0 2479:3.982410353157909 832:3.769933712952812 3195:2.5894759688949875 
0.03751570422488025 2140:3.366725884220994 111:6.55857803045802 
0.057727908316648834 3227:0.9380584679332568 2875:0.7604278682064005 761:1.9912051765789545 1723:2.255365593365814 1085:1.1417282533701898 1511:0.8631744557828003 
0.04347231428819005 2671:13.11715606091604 
0.041649674074722295 1256:5.105132732653761 216:4.16789817369569 
1.0 1989:2.0234312121832083 2056:2.5064387120389773 2919:1.3323657681222962 1286:2.623431212183208 1935:1.8889461437889095 
0.0276800609006841 2233:0.942483428238203 2687:0.7314421715026179 1889:0.8549312554823724 1670:0.5893968284631322 2995:0.4855947678319519 2414:0.6573614475350134 2084:0.8827995087382523 1680:1.127682796682907 729:0.8937365531781067 1401:0.7456025882894772 437:0.877682796682907 
0.10361649235794808 1631:1.399642997638507 35:0.75657655512177 3068:1.5934817882822718 2068:2.2619602277716875 56:1.8420530930615044 
0.11218620936077962 1628:1.8683775775512539 3134:2.18619267681934 35:0.75657655512177 2652:1.4530814038999968 1025:2.359045593205736 
0.03618432014191294 2851:2.275551011372474 1160:5.328862221139372 
0.043488967927358346 2851:1.5170340075816493 2690:4.37238535363868 1521:3.982410353157909 
1.0 1995:5.654900569429218 
0.040697634879610665 1624:4.058578030458021 543:6.55857803045802 
0.028514831634727355 2850:3.8440645200649617 2626:4.705718686972014 1627:3.6230761824908186 
0.050896993959502736 341:6.766096780097443 295:3.9736155297368643 
0.019115978977393963 2984:2.0195260101526733 2722:2.255365593365814 454:1.4628843430052358 2797:1.5473776744585497 2652:1.2109011699166639 2172:1.3828295164168085 
0.5285778485541112 1462:0.38854360541986677 1714:0.9469077799121874 211:0.7404079203527975 2321:0.9469077799121874 1170:0.6209816878121222 2172:1.914687022730966 2235:0.8870918123226835 35:0.2909909827391423 1702:0.9190177738056714 3141:0.6647248176884342 2678:0.7621309765605455 2851:0.35008477098038066 1401:0.6882485430364407 
0.04526679080725325 2098:2.0812373161335547 499:5.89761398301434 
0.03980785513667407 1167:2.5522657610254904 693:4.504315802068936 
1.0 3227:2.1888030918442656 2006:2.7367551551025073 2958:2.6391612386932257 
0.04218364919680744 2759:3.804680710358672 2746:5.129587532894234 
0.04129879223123931 3227:3.283204637766399 699:4.525533435229135 
0.01784095390522605 2458:2.2834565067403796 1517:1.6752402248641443 1345:2.505747739576304 
0.036012132137011814 2851:2.275551011372474 984:5.154900569429218 
0.04340599315107157 763:3.6172565057771 154:5.766096780097443 
0.042689763599612025 2893:13.532193560194886 
0.027172519748269976 2964:1.2443507282895188 1359:2.0195260101526733 1666:1.9912051765789545 1942:2.0145523883115177 1511:1.0358093469393603 
0.048970595714701894 2875:1.520855736412801 1019:4.705718686972014 538:2.580705543189705 
0.2916599319616185 2045:6.55857803045802 2622:7.058578030458021 
0.4908969751045703 1663:4.510731186731628 1631:2.332738329397511 2687:2.9257686860104717 
0.03791879792628761 3150:1.0436214670173893 477:1.5387251423573045 403:1.514644507614505 3139:1.1805913398680683 2246:1.0233023404191444 725:3.27928901522901 1807:1.2762831831634402 1303:1.228969230256724 
1.0 1744:3.963665751018012 
0.04605662311615706 2730:6.55857803045802 749:4.736649935570658 
0.025497312082594266 1326:6.05857803045802 674:7.058578030458021 
0.049530505897408934 1218:4.37238535363868 1085:3.42518476011057 
0.04705303911944353 1033:4.265075988676227 1184:4.705718686972014 35:1.26096092520295 
0.6820983497985188 1767:2.3894462118947457 2317:1.8778471212705687 97:2.131544888455749 1679:2.5064387120389773 1511:1.0358093469393603 
0.03611309039910725 1108:11.657724442278743 
0.0435020607088925 2098:2.0812373161335547 1517:1.6752402248641443 567:3.6765644065552334 
0.05714419030176489 2875:2.2812836046192015 811:4.781283604619202 
0.04152174370164193 168:13.532193560194886 
0.03662818326642783 1865:2.0791909371010857 63:3.177397853398295 1407:3.3432310732219 
0.04495775648864201 1203:14.117156060916042 
0.0949007899845868 2906:9.90770269528709 2851:2.275551011372474 
0.04154262575332726 1599:12.79522796602868 
1.0 2003:4.953851347643545 2824:4.736649935570658 
0.022235851557072174 3010:0.5550991733027149 1:0.756288757081061 150:0.6685301004779957 707:0.8967480340214419 2919:0.5124483723547293 1817:0.9190177738056714 2715:0.5255195263118302 1389:0.9190177738056714 2295:0.9640148892457605 286:0.7970975814425055 2140:0.5179578283416914 2851:1.050254312941142 
0.021204054094164267 2995:0.8324481734262031 1605:1.2566212054800485 538:1.2903527715948524 575:1.5310697872255257 795:1.5886989266991476 900:2.7829905787130382 
0.027293439857280197 2851:0.9102204045489897 763:1.44690260231084 58:2.5590455932057363 898:2.7064387120389775 1511:1.0358093469393603 
1.0 1488:1.5756704599522429 2541:1.0963160807239019 2269:1.5045990800278406 1546:1.07495700337828 1468:1.2869473720196958 1670:1.0103945630796554 2658:1.426839006281582 
0.03302854689727723 2964:0.9332630462171391 843:1.029314126444275 1587:1.5638901513533898 2086:2.0167365801308628 2851:0.6501574318207068 24:2.0167365801308628 2806:1.0792733766707097 
1.0 1462:1.6836889568194224 3223:3.7438997204182156 
0.051740392752241085 2715:1.1386256403422985 446:2.18619267681934 95:1.6938266250881941 1631:1.1663691646987555 452:1.8245385099122882 1985:2.18619267681934 
0.42867207984547084 3227:1.3132818551065597 2964:1.4932208739474226 2519:2.2833432685549897 2403:2.0619602277716873 2342:1.8017263208275744 
0.37837894690825485 1142:13.532193560194886 
0.944579915496945 1709:11.0296932196657 
1.0 1847:4.812651482293183 2931:6.55857803045802 
0.07122968735682275 917:2.7064387120389775 35:0.75657655512177 1517:1.0051441349184866 1894:2.5590455932057363 
0.038953937508075145 2995:2.9135686069917113 305:12.244439625793747 
0.049879000542980084 2408:3.5292890152290104 1865:1.5593932028258144 1646:2.8830483900487214 1961:2.3830483900487214 
0.04758594840083793 1167:1.701510507350327 391:2.536453806905781 968:3.3432310732219 
0.03328978459280295 2652:2.4218023398333277 2273:2.740779432536032 1085:2.2834565067403796 
0.029117797710591253 2806:3.777456818347484 517:5.766096780097443 
0.02522400127077052 2715:1.3663507684107585 2851:0.9102204045489897 1951:2.5064387120389773 3109:2.8234312121832086 
0.024208936407551937 2541:3.8371062825336564 1646:5.766096780097443 
0.02734850648509883 3010:3.608144626467646 1310:6.05857803045802 
0.9422120026519799 2098:2.0812373161335547 1517:1.6752402248641443 
0.02476950231206099 2875:1.520855736412801 1517:3.3504804497282885 763:2.4115043371847333 
0.045247681052246067 2579:6.766096780097443 1167:2.5522657610254904 
0.040855451858972935 896:13.532193560194886 
0.04348005264278553 2372:11.309801138858436 
0.025460322676918196 2759:1.5218722841434689 1317:2.0946599742282634 2068:2.2619602277716875 1484:2.1590455932057355 295:1.5894462118947459 
0.052908030281773336 1517:1.2564301686481083 295:3.9736155297368643 
1.0 2098:2.0812373161335547 1511:2.589523367348401 
0.037471620304634815 1167:2.5522657610254904 813:4.915876921026896 
1.0 1821:3.8086550869164175 1511:2.589523367348401 
1.0 476:9.625302964586366 
1.0 2851:2.275551011372474 1045:5.036380970778794 
0.039141336114321745 1462:2.525533435229134 1026:6.766096780097443 
1.0 929:12.532193560194886 
0.04261071834070527 464:13.532193560194886 
0.04370888403650787 856:12.309801138858436 
0.5915574665769211 843:2.7448376705180664 1170:2.6909206471858624 3124:4.103267046286145 
0.2178403556047791 3068:3.9837044707056792 2875:2.2812836046192015 
0.015058216510438848 2887:3.120756186250857 1995:3.769933712952812 1511:1.7263489115656006 
1.0 1167:1.0209063044101963 2428:2.3315448884557486 1865:1.2475145622606516 1762:2.173845709494491 295:1.5894462118947459 
0.032797082292706545 2458:3.42518476011057 587:5.973615529736864 
0.02679124740445979 290:6.55857803045802 2382:4.312651482293183 
0.04806850222267049 1517:2.5128603372962166 1240:6.766096780097443 
0.04033957141634721 391:3.804680710358672 3163:6.766096780097443 
0.05189284645200415 3010:1.0308984647050417 2431:2.1325379943381133 1670:1.1787936569262645 2523:0.9398996324120255 2851:0.7585170037908247 1129:2.255365593365814 
0.37972139796258025 2124:13.11715606091604 
1.0 2249:4.258621609364456 1511:2.589523367348401 
0.024315692051897007 3010:2.4054297509784304 2819:2.352859343486007 305:1.3604932917548607 454:1.4628843430052358 2140:1.1222419614069978 571:1.6938266250881941 
0.29895654252815584 553:3.931742655342893 2003:3.3025675650956967 1085:2.2834565067403796 
0.023451245528803837 2458:1.712592380055285 1378:2.757423304916425 1116:3.039052020305347 
0.034365973937088734 2273:0.9135931441786774 3068:0.9959261176764198 2292:0.9236544507941052 1847:1.2031628705732957 758:1.4270895428468686 
0.28768508942136706 648:0.6882645888157057 2207:0.8937365531781067 2919:0.5551524033842901 1724:0.820881201787791 2971:1.1392903236540806 829:0.9749853307397529 35:0.3438984341462591 2414:0.7171215791291055 761:1.0861119144976117 2200:0.6787367608851921 2851:0.413736547522268 
0.016682387462609728 2200:3.7330521848685563 414:4.7083581713874745 
0.04999855283809459 201:7.058578030458021 
0.05017540153583004 2715:1.3663507684107585 1146:2.00593864393314 85:2.2833432685549897 205:1.4555904545638194 1903:2.0234312121832083 
0.15838117595470094 1281:12.79522796602868 
0.03242423579989533 2851:2.275551011372474 908:6.39761398301434 
1.0 1462:2.525533435229134 1511:2.589523367348401 
0.04372351146453229 377:25.06438712038977 
0.02161664567548624 3227:1.6416023188831994 2875:1.1406418023096008 2541:1.9185531412668282 726:1.9399010140744892 
0.15360816125467436 1012:4.915876921026896 843:4.1172565057771 
0.014922702004350944 3010:1.4432578505870586 1747:2.359045593205736 2523:1.1278795588944306 2851:0.9102204045489897 795:1.9064387120389772 
0.17529507336726147 349:3.6490770198245763 2106:4.039052020305347 2382:2.875100988195455 
1.0 2458:3.42518476011057 
0.041197659538333584 2851:1.5170340075816493 794:13.554612116062833 
0.04399203835122167 1257:13.11715606091604 
0.026350327800456576 1865:2.0791909371010857 589:4.281283604619202 
0.014700204482932827 2200:2.4887014565790375 1187:3.572806253482635 
0.018716738675384294 3010:1.4432578505870586 1865:1.2475145622606516 2919:1.3323657681222962 2759:1.5218722841434689 2342:1.8017263208275744 
0.06531042625022215 2875:1.520855736412801 1754:4.6172565057771 
0.04212718587461963 1827:11.532193560194886 
0.0218243505219828 1167:2.5522657610254904 625:3.16626060767926 
0.029789884266306493 1372:6.154900569429218 138:4.258621609364456 
0.05025612961390765 874:3.740265720186196 9:4.5932093616765775 
0.06698597826888891 1153:2.1325379943381133 2588:1.8528593434860066 1462:0.8418444784097112 2273:1.370389716268016 3230:2.2833432685549897 
0.14019413730499528 1821:3.8086550869164175 874:3.740265720186196 
0.04648177926821066 1517:2.5128603372962166 727:5.105132732653761 
0.03854304045800349 2715:1.707938460513448 1546:1.88117475591199 1085:1.712592380055285 1511:1.2947616836742004 
0.02488692751815748 2715:1.707938460513448 2317:2.3473089015882107 2304:2.4063257411465915 1961:2.3830483900487214 
0.07625688219037398 1319:10.795227966028678 
0.04123003499573598 1309:14.117156060916042 
0.06286499096133302 2875:1.520855736412801 625:2.1108404051195064 1961:3.177397853398295 
0.04655491143083769 2680:7.058578030458021 2273:4.1111691488040485 
0.028723289124779897 2683:1.9331705085992692 2186:1.8278897094326685 1103:2.18619267681934 2851:0.7585170037908247 1215:2.18619267681934 3195:1.2947379844474938 
0.05304929334563387 2926:6.55857803045802 2382:4.312651482293183 
0.015105405983287669 1146:3.3432310732219 313:4.510731186731628 1462:1.6836889568194224 
0.04795566438189752 2480:6.05857803045802 2467:8.707765124778339 
0.6178834555961908 1462:0.6313833588072835 614:1.3787116524582126 1167:0.6380664402563726 1821:0.9521637717291044 861:1.514644507614505 2608:1.3165241950243607 2022:1.103969230256724 286:1.2952835698440714 
0.7631753242259031 3068:3.9837044707056792 1479:3.8798020281489785 
0.41014664555152985 2101:2.1325379943381133 339:1.6512837825478484 1670:1.1787936569262645 1167:0.8507552536751635 1429:1.755365593365814 1151:1.5989323508098379 
0.03668567418555878 2401:4.667898173695691 559:4.845445653106971 
0.039963125902517535 2344:2.255365593365814 1108:1.942954073713124 96:1.7874731063562135 2322:2.0195260101526733 593:1.7655990174765046 
0.045411584866146035 558:12.79522796602868 
0.026948293836301724 2458:3.42518476011057 673:3.356007298889849 
0.04537726000536936 821:4.388653029015708 63:4.766096780097443 
0.06165068423822551 3219:2.0167365801308628 303:2.0167365801308628 476:1.6042171607643942 108:1.6266006760496592 643:1.9658713276714466 
0.044281360601863495 2140:1.3466903536883976 887:2.5525663663268805 2940:3.19880699150717 389:3.5292890152290104 
0.026036504520821402 2458:2.2834565067403796 1637:4.569938068708062 
0.07749402004313659 2610:5.036380970778794 2523:2.8196988972360764 
0.042294067671543964 1975:7.058578030458021 1511:2.589523367348401 
0.6477099050908967 1517:2.5128603372962166 2401:4.667898173695691 
1.0 3104:10.162959750529165 
0.05389935817602037 1517:1.2564301686481083 2900:3.19880699150717 794:1.694326514507854 
0.042857100590569734 1492:11.309801138858436 
0.04413750951869827 2215:14.117156060916042 
0.02239233329195809 2851:2.275551011372474 2687:4.388653029015708 
0.02786329048485258 1468:4.504315802068936 261:6.766096780097443 
0.04503185964761365 2599:13.532193560194886 
0.08569186569643122 2947:11.947231059473728 
0.01582910557969796 2964:3.7330521848685563 1064:4.897613983014339 
0.5215562025987778 2003:3.3025675650956967 1198:3.187522403079468 2458:2.2834565067403796 
1.0 349:10.94723105947373 
0.04768828638298247 2875:0.9125134418476807 1638:2.0234312121832083 1265:2.6988069915071695 
0.046167229127384045 1440:13.532193560194886 
1.0 2249:2.129310804682228 1633:2.518190485389397 1085:1.712592380055285 1511:1.2947616836742004 
0.0461451989502345 1752:12.79522796602868 
0.028704648317174286 2995:1.9423790713278075 1147:2.7248805185256004 575:3.0621395744510513 
0.046382294278017835 3189:13.11715606091604 
0.1440446404497717 2115:5.766096780097443 3057:7.058578030458021 
0.04016628596822222 1509:11.11715606091604 
0.03809168351407198 1670:3.5363809707787937 437:5.266096780097443 
0.022899610116066418 763:3.6172565057771 699:4.525533435229135 
0.014445755366770893 1873:3.76234951182398 1425:4.030936812707425 
0.04226713259802749 1447:14.117156060916042 
0.04452354178020275 483:14.117156060916042 
0.02356034134931672 2715:0.9759648345791131 391:1.0870516315310492 1688:1.4803240798217958 339:1.415386099326727 425:1.1175050445749164 26:1.87387943727372 1511:1.4797276384848004 
0.04568855236597863 2240:1.4270895428468686 35:0.47286034695110624 2995:0.8324481734262031 2414:1.1269053386314514 265:1.4881023346821354 2851:1.3003148636414137 795:1.3617419371706978 
0.044704692851616254 2854:13.532193560194886 
0.04872798432511843 1631:3.499107494096267 138:4.258621609364456 
0.06558138504925784 1322:2.5064387120389773 922:2.2833432685549897 2851:0.9102204045489897 982:2.223431212183208 1940:2.359045593205736 
0.029971863822523422 2669:5.397613983014339 1708:6.766096780097443 
0.03663797639309665 2715:3.415876921026896 2540:4.845445653106971 
0.6029261157078647 648:2.753058355262823 1606:4.177397853398295 
0.04121402447649259 526:12.79522796602868 
0.05967577822612759 2098:2.0812373161335547 1244:3.7367551551025078 2523:1.879799264824051 
0.03054875761481194 2567:3.086391688596156 1390:3.472238780924983 1289:4.37238535363868 
1.0 2098:3.121855974200332 
0.023152368261970927 1167:1.701510507350327 705:3.4197250219294895 1511:1.7263489115656006 
0.8661661412129459 2403:5.154900569429218 2292:3.694617803176421 
0.039946786456760926 1167:1.0209063044101963 1605:1.5079454465760584 1179:3.574946212712427 
0.046748624632308444 1023:13.532193560194886 
0.04336938758399476 2887:1.5603780931254285 9:1.5310697872255257 2875:0.7604278682064005 763:1.2057521685923667 1783:2.255365593365814 2123:2.1325379943381133 
0.06179686837662951 1605:3.769863616440146 339:4.953851347643545 
0.048611660418276935 35:0.9457206939022125 2715:1.707938460513448 2192:2.664431110569686 2228:2.94880699150717 
0.04572029173240398 179:12.532193560194886 
0.20354952487479602 2003:1.9815405390574181 1821:1.9043275434582088 587:3.982410353157909 
0.046665274186639565 1605:7.539727232880292 843:8.2345130115542 
0.013817935374443277 1167:1.701510507350327 2984:4.039052020305347 1629:3.982410353157909 
0.7732774075851417 1345:5.011495479152608 
0.027817860262443695 3010:0.9020361566169115 2619:1.154314126444275 2924:1.5387251423573045 763:0.904314126444275 673:0.8390018247224622 296:1.2156048297671602 1511:0.7398638192424002 
0.5432337164052112 271:12.79522796602868 
0.04385502153362445 1511:2.589523367348401 794:3.388653029015708 
0.04248893216622939 494:14.117156060916042 
0.04027654463879398 2328:6.766096780097443 726:1.9399010140744892 909:2.802566366326881 2851:1.137775505686237 
0.028327655306749307 2567:4.629587532894234 150:4.345445653106972 
0.4042480738793389 1462:0.5051066870458268 14:1.245585051700836 1951:1.392465951132765 1423:1.2352395623240044 2523:0.6265997549413502 2249:1.064655402341114 2851:1.137775505686237 1511:0.6473808418371002 
0.0388862106753916 2995:1.9423790713278075 1170:2.6909206471858624 567:3.6765644065552334 
0.05085218872114456 2098:3.121855974200332 1754:4.6172565057771 
0.025742248606260894 2401:3.111932115797127 1364:4.075685888126976 
0.03335518279034336 1546:3.76234951182398 1456:6.766096780097443 
0.037843034821729425 1167:1.701510507350327 75:4.103267046286145 3000:3.982410353157909 
0.043133844062039114 2822:14.117156060916042 
0.05021865149784654 1587:2.7368077648684324 3230:3.8055721142583163 2881:4.37238535363868 
